<?xml version="1.0"?>
<opencv_storage>
<cascade>
  <stageType>BOOST</stageType>
  <featureType>HAAR</featureType>
  <height>48</height>
  <width>48</width>
  <stageParams>
    <boostType>GAB</boostType>
    <minHitRate>9.9500000476837158e-01</minHitRate>
    <maxFalseAlarm>5.0000000000000000e-01</maxFalseAlarm>
    <weightTrimRate>9.4999999999999996e-01</weightTrimRate>
    <maxDepth>1</maxDepth>
    <maxWeakCount>100</maxWeakCount></stageParams>
  <featureParams>
    <maxCatCount>0</maxCatCount>
    <featSize>1</featSize>
    <mode>BASIC</mode></featureParams>
  <stageNum>10</stageNum>
  <stages>
    <!-- stage 0 -->
    <_>
      <maxWeakCount>9</maxWeakCount>
      <stageThreshold>-6.5322893857955933e-01</stageThreshold>
      <weakClassifiers>
        <_>
          <internalNodes>
            0 -1 29 8.0016689025796950e-05</internalNodes>
          <leafValues>
            -7.4753451347351074e-01 8.2944279909133911e-01</leafValues></_>
        <_>
          <internalNodes>
            0 -1 20 8.1767458468675613e-03</internalNodes>
          <leafValues>
            4.7861006855964661e-01 -8.9443624019622803e-01</leafValues></_>
        <_>
          <internalNodes>
            0 -1 9 -1.9140297081321478e-03</internalNodes>
          <leafValues>
            4.7711354494094849e-01 -4.4948831200599670e-01</leafValues></_>
        <_>
          <internalNodes>
            0 -1 33 5.5879339925013483e-05</internalNodes>
          <leafValues>
            -7.6164120435714722e-01 2.5932782888412476e-01</leafValues></_>
        <_>
          <internalNodes>
            0 -1 60 8.2227797247469425e-04</internalNodes>
          <leafValues>
            1.9067618250846863e-01 -8.4529650211334229e-01</leafValues></_>
        <_>
          <internalNodes>
            0 -1 62 4.4961217790842056e-03</internalNodes>
          <leafValues>
            -3.2106924057006836e-01 5.8721947669982910e-01</leafValues></_>
        <_>
          <internalNodes>
            0 -1 3 1.6136553138494492e-02</internalNodes>
          <leafValues>
            -3.1365767121315002e-01 7.6765024662017822e-01</leafValues></_>
        <_>
          <internalNodes>
            0 -1 28 6.9115879014134407e-03</internalNodes>
          <leafValues>
            2.6341366767883301e-01 -9.4213789701461792e-01</leafValues></_>
        <_>
          <internalNodes>
            0 -1 24 2.5246245058951899e-05</internalNodes>
          <leafValues>
            -5.5451154708862305e-01 2.6777788996696472e-01</leafValues></_></weakClassifiers></_>
    <!-- stage 1 -->
    <_>
      <maxWeakCount>5</maxWeakCount>
      <stageThreshold>-1.9118171930313110e-01</stageThreshold>
      <weakClassifiers>
        <_>
          <internalNodes>
            0 -1 43 6.5471720881760120e-04</internalNodes>
          <leafValues>
            8.0033093690872192e-01 -8.5789471864700317e-01</leafValues></_>
        <_>
          <internalNodes>
            0 -1 25 -3.8504038820974529e-04</internalNodes>
          <leafValues>
            -7.6713353395462036e-01 5.2943176031112671e-01</leafValues></_>
        <_>
          <internalNodes>
            0 -1 4 1.4069481752812862e-02</internalNodes>
          <leafValues>
            -3.4941008687019348e-01 6.5884953737258911e-01</leafValues></_>
        <_>
          <internalNodes>
            0 -1 23 1.4597194967791438e-04</internalNodes>
          <leafValues>
            -5.6687283515930176e-01 3.7443953752517700e-01</leafValues></_>
        <_>
          <internalNodes>
            0 -1 7 -5.7563181966543198e-02</internalNodes>
          <leafValues>
            6.9190376996994019e-01 -3.9556744694709778e-01</leafValues></_></weakClassifiers></_>
    <!-- stage 2 -->
    <_>
      <maxWeakCount>6</maxWeakCount>
      <stageThreshold>-1.1220198124647141e-01</stageThreshold>
      <weakClassifiers>
        <_>
          <internalNodes>
            0 -1 39 4.2362356907688081e-04</internalNodes>
          <leafValues>
            7.9028415679931641e-01 -7.8021979331970215e-01</leafValues></_>
        <_>
          <internalNodes>
            0 -1 38 8.9144508820027113e-05</internalNodes>
          <leafValues>
            -7.5788462162017822e-01 4.4982558488845825e-01</leafValues></_>
        <_>
          <internalNodes>
            0 -1 46 7.7550994319608435e-06</internalNodes>
          <leafValues>
            -5.5309146642684937e-01 4.0756571292877197e-01</leafValues></_>
        <_>
          <internalNodes>
            0 -1 21 3.7816782423760742e-05</internalNodes>
          <leafValues>
            -5.7055968046188354e-01 3.7346157431602478e-01</leafValues></_>
        <_>
          <internalNodes>
            0 -1 32 3.7294655339792371e-04</internalNodes>
          <leafValues>
            2.2500863671302795e-01 -8.8622957468032837e-01</leafValues></_>
        <_>
          <internalNodes>
            0 -1 50 5.2435015095397830e-04</internalNodes>
          <leafValues>
            1.7281347513198853e-01 -8.7876093387603760e-01</leafValues></_></weakClassifiers></_>
    <!-- stage 3 -->
    <_>
      <maxWeakCount>7</maxWeakCount>
      <stageThreshold>-3.8544201850891113e-01</stageThreshold>
      <weakClassifiers>
        <_>
          <internalNodes>
            0 -1 58 5.9418258024379611e-04</internalNodes>
          <leafValues>
            7.8190422058105469e-01 -8.2208591699600220e-01</leafValues></_>
        <_>
          <internalNodes>
            0 -1 47 9.1019375249743462e-03</internalNodes>
          <leafValues>
            4.3095779418945312e-01 -9.3550002574920654e-01</leafValues></_>
        <_>
          <internalNodes>
            0 -1 48 -1.0916169267147779e-03</internalNodes>
          <leafValues>
            -8.7768679857254028e-01 1.9838634133338928e-01</leafValues></_>
        <_>
          <internalNodes>
            0 -1 1 -3.0251896008849144e-02</internalNodes>
          <leafValues>
            6.2706279754638672e-01 -3.5012277960777283e-01</leafValues></_>
        <_>
          <internalNodes>
            0 -1 22 3.4419540315866470e-04</internalNodes>
          <leafValues>
            -5.5124473571777344e-01 3.5544162988662720e-01</leafValues></_>
        <_>
          <internalNodes>
            0 -1 14 -2.6574197690933943e-03</internalNodes>
          <leafValues>
            5.1260089874267578e-01 -4.2335736751556396e-01</leafValues></_>
        <_>
          <internalNodes>
            0 -1 57 9.9682525615207851e-05</internalNodes>
          <leafValues>
            -5.7569104433059692e-01 3.6545312404632568e-01</leafValues></_></weakClassifiers></_>
    <!-- stage 4 -->
    <_>
      <maxWeakCount>5</maxWeakCount>
      <stageThreshold>-4.0698546171188354e-01</stageThreshold>
      <weakClassifiers>
        <_>
          <internalNodes>
            0 -1 11 -1.1314360890537500e-03</internalNodes>
          <leafValues>
            -9.0283399820327759e-01 7.6274228096008301e-01</leafValues></_>
        <_>
          <internalNodes>
            0 -1 44 2.6480981887289090e-06</internalNodes>
          <leafValues>
            -3.6372318863868713e-01 6.3747978210449219e-01</leafValues></_>
        <_>
          <internalNodes>
            0 -1 42 1.9551090372260660e-04</internalNodes>
          <leafValues>
            -5.3428065776824951e-01 4.3498119711875916e-01</leafValues></_>
        <_>
          <internalNodes>
            0 -1 18 2.6438181521371007e-04</internalNodes>
          <leafValues>
            -7.2901391983032227e-01 3.0837541818618774e-01</leafValues></_>
        <_>
          <internalNodes>
            0 -1 41 2.5204713456332684e-03</internalNodes>
          <leafValues>
            -5.8009934425354004e-01 3.3352962136268616e-01</leafValues></_></weakClassifiers></_>
    <!-- stage 5 -->
    <_>
      <maxWeakCount>6</maxWeakCount>
      <stageThreshold>-2.3742870986461639e-01</stageThreshold>
      <weakClassifiers>
        <_>
          <internalNodes>
            0 -1 34 4.9169629346579313e-04</internalNodes>
          <leafValues>
            7.6130652427673340e-01 -8.7044537067413330e-01</leafValues></_>
        <_>
          <internalNodes>
            0 -1 35 8.4321960457600653e-05</internalNodes>
          <leafValues>
            -2.9361531138420105e-01 6.2148994207382202e-01</leafValues></_>
        <_>
          <internalNodes>
            0 -1 19 -1.4432440511882305e-03</internalNodes>
          <leafValues>
            5.0155681371688843e-01 -4.6340188384056091e-01</leafValues></_>
        <_>
          <internalNodes>
            0 -1 17 -8.3694561908487231e-05</internalNodes>
          <leafValues>
            3.7520959973335266e-01 -5.3635251522064209e-01</leafValues></_>
        <_>
          <internalNodes>
            0 -1 0 -6.9919209927320480e-03</internalNodes>
          <leafValues>
            6.7452454566955566e-01 -2.6741218566894531e-01</leafValues></_>
        <_>
          <internalNodes>
            0 -1 59 -2.9076210921630263e-04</internalNodes>
          <leafValues>
            5.6204664707183838e-01 -3.5831126570701599e-01</leafValues></_></weakClassifiers></_>
    <!-- stage 6 -->
    <_>
      <maxWeakCount>8</maxWeakCount>
      <stageThreshold>-4.1570672392845154e-01</stageThreshold>
      <weakClassifiers>
        <_>
          <internalNodes>
            0 -1 40 3.0399141905945726e-06</internalNodes>
          <leafValues>
            -7.0779222249984741e-01 7.7027761936187744e-01</leafValues></_>
        <_>
          <internalNodes>
            0 -1 30 1.9000049214810133e-03</internalNodes>
          <leafValues>
            3.7792900204658508e-01 -8.6598026752471924e-01</leafValues></_>
        <_>
          <internalNodes>
            0 -1 10 -1.7443445976823568e-03</internalNodes>
          <leafValues>
            4.5528516173362732e-01 -3.6356937885284424e-01</leafValues></_>
        <_>
          <internalNodes>
            0 -1 16 2.6119971880689263e-04</internalNodes>
          <leafValues>
            -5.0753581523895264e-01 3.3644056320190430e-01</leafValues></_>
        <_>
          <internalNodes>
            0 -1 53 1.5799282118678093e-04</internalNodes>
          <leafValues>
            -4.5810943841934204e-01 3.3528271317481995e-01</leafValues></_>
        <_>
          <internalNodes>
            0 -1 56 -3.5719521110877395e-04</internalNodes>
          <leafValues>
            -8.2963746786117554e-01 1.6472880542278290e-01</leafValues></_>
        <_>
          <internalNodes>
            0 -1 36 -5.3678173571825027e-04</internalNodes>
          <leafValues>
            2.8941589593887329e-01 -5.5004906654357910e-01</leafValues></_>
        <_>
          <internalNodes>
            0 -1 61 1.3763224706053734e-02</internalNodes>
          <leafValues>
            -2.6378867030143738e-01 6.6842263936996460e-01</leafValues></_></weakClassifiers></_>
    <!-- stage 7 -->
    <_>
      <maxWeakCount>7</maxWeakCount>
      <stageThreshold>-3.8777127861976624e-01</stageThreshold>
      <weakClassifiers>
        <_>
          <internalNodes>
            0 -1 8 1.4042514376342297e-03</internalNodes>
          <leafValues>
            7.6208448410034180e-01 -8.4251970052719116e-01</leafValues></_>
        <_>
          <internalNodes>
            0 -1 27 -1.4864892000332475e-04</internalNodes>
          <leafValues>
            -8.6396628618240356e-01 3.9092952013015747e-01</leafValues></_>
        <_>
          <internalNodes>
            0 -1 31 3.0200483161024749e-04</internalNodes>
          <leafValues>
            -3.8300627470016479e-01 4.5497158169746399e-01</leafValues></_>
        <_>
          <internalNodes>
            0 -1 13 -4.7649960964918137e-02</internalNodes>
          <leafValues>
            5.5832779407501221e-01 -3.5836705565452576e-01</leafValues></_>
        <_>
          <internalNodes>
            0 -1 49 1.0176614159718156e-03</internalNodes>
          <leafValues>
            -5.5396759510040283e-01 4.3310502171516418e-01</leafValues></_>
        <_>
          <internalNodes>
            0 -1 45 1.5869569324422628e-04</internalNodes>
          <leafValues>
            -4.9350157380104065e-01 4.0051212906837463e-01</leafValues></_>
        <_>
          <internalNodes>
            0 -1 54 -1.1937512317672372e-04</internalNodes>
          <leafValues>
            -6.4595645666122437e-01 2.4348571896553040e-01</leafValues></_></weakClassifiers></_>
    <!-- stage 8 -->
    <_>
      <maxWeakCount>5</maxWeakCount>
      <stageThreshold>1.6701291501522064e-01</stageThreshold>
      <weakClassifiers>
        <_>
          <internalNodes>
            0 -1 26 2.1116274874657393e-03</internalNodes>
          <leafValues>
            7.5885510444641113e-01 -9.3886464834213257e-01</leafValues></_>
        <_>
          <internalNodes>
            0 -1 63 -6.4960622694343328e-04</internalNodes>
          <leafValues>
            -8.9145743846893311e-01 3.8000312447547913e-01</leafValues></_>
        <_>
          <internalNodes>
            0 -1 12 5.8228033594787121e-06</internalNodes>
          <leafValues>
            -5.2792626619338989e-01 2.8483188152313232e-01</leafValues></_>
        <_>
          <internalNodes>
            0 -1 5 -4.3011261150240898e-03</internalNodes>
          <leafValues>
            5.5227720737457275e-01 -3.0224627256393433e-01</leafValues></_>
        <_>
          <internalNodes>
            0 -1 15 4.8818389768712223e-04</internalNodes>
          <leafValues>
            -5.3749388456344604e-01 3.5748419165611267e-01</leafValues></_></weakClassifiers></_>
    <!-- stage 9 -->
    <_>
      <maxWeakCount>9</maxWeakCount>
      <stageThreshold>-1.1075569689273834e-01</stageThreshold>
      <weakClassifiers>
        <_>
          <internalNodes>
            0 -1 6 -4.2924247682094574e-03</internalNodes>
          <leafValues>
            -8.5654008388519287e-01 7.5779289007186890e-01</leafValues></_>
        <_>
          <internalNodes>
            0 -1 37 1.3268322218209505e-03</internalNodes>
          <leafValues>
            3.5918888449668884e-01 -9.4946044683456421e-01</leafValues></_>
        <_>
          <internalNodes>
            0 -1 64 -5.9260292910039425e-03</internalNodes>
          <leafValues>
            6.1682349443435669e-01 -2.7617746591567993e-01</leafValues></_>
        <_>
          <internalNodes>
            0 -1 65 6.4737014472484589e-03</internalNodes>
          <leafValues>
            -1.8172898888587952e-01 7.8118324279785156e-01</leafValues></_>
        <_>
          <internalNodes>
            0 -1 2 -3.1717629171907902e-03</internalNodes>
          <leafValues>
            4.1206276416778564e-01 -3.8438156247138977e-01</leafValues></_>
        <_>
          <internalNodes>
            0 -1 66 7.7030836837366223e-04</internalNodes>
          <leafValues>
            -2.8495270013809204e-01 5.4504251480102539e-01</leafValues></_>
        <_>
          <internalNodes>
            0 -1 52 1.8805190920829773e-03</internalNodes>
          <leafValues>
            1.7401400208473206e-01 -9.4076973199844360e-01</leafValues></_>
        <_>
          <internalNodes>
            0 -1 55 1.3555124169215560e-03</internalNodes>
          <leafValues>
            -4.0741473436355591e-01 3.3595803380012512e-01</leafValues></_>
        <_>
          <internalNodes>
            0 -1 51 3.8126949220895767e-05</internalNodes>
          <leafValues>
            -6.1046880483627319e-01 2.2737880051136017e-01</leafValues></_></weakClassifiers></_></stages>
  <features>
    <_>
      <rects>
        <_>
          0 22 9 9 -1.</_>
        <_>
          3 22 3 9 3.</_></rects>
      <tilted>0</tilted></_>
    <_>
      <rects>
        <_>
          0 28 28 18 -1.</_>
        <_>
          0 28 14 9 2.</_>
        <_>
          14 37 14 9 2.</_></rects>
      <tilted>0</tilted></_>
    <_>
      <rects>
        <_>
          1 10 4 30 -1.</_>
        <_>
          1 20 4 10 3.</_></rects>
      <tilted>0</tilted></_>
    <_>
      <rects>
        <_>
          3 6 12 22 -1.</_>
        <_>
          3 6 6 11 2.</_>
        <_>
          9 17 6 11 2.</_></rects>
      <tilted>0</tilted></_>
    <_>
      <rects>
        <_>
          3 15 10 18 -1.</_>
        <_>
          8 15 5 18 2.</_></rects>
      <tilted>0</tilted></_>
    <_>
      <rects>
        <_>
          6 27 20 2 -1.</_>
        <_>
          16 27 10 2 2.</_></rects>
      <tilted>0</tilted></_>
    <_>
      <rects>
        <_>
          7 29 21 4 -1.</_>
        <_>
          14 29 7 4 3.</_></rects>
      <tilted>0</tilted></_>
    <_>
      <rects>
        <_>
          8 14 39 18 -1.</_>
        <_>
          21 14 13 18 3.</_></rects>
      <tilted>0</tilted></_>
    <_>
      <rects>
        <_>
          9 30 12 2 -1.</_>
        <_>
          13 30 4 2 3.</_></rects>
      <tilted>0</tilted></_>
    <_>
      <rects>
        <_>
          9 35 33 4 -1.</_>
        <_>
          9 37 33 2 2.</_></rects>
      <tilted>0</tilted></_>
    <_>
      <rects>
        <_>
          10 4 3 18 -1.</_>
        <_>
          10 10 3 6 3.</_></rects>
      <tilted>0</tilted></_>
    <_>
      <rects>
        <_>
          10 16 9 6 -1.</_>
        <_>
          13 16 3 6 3.</_></rects>
      <tilted>0</tilted></_>
    <_>
      <rects>
        <_>
          10 18 2 1 -1.</_>
        <_>
          11 18 1 1 2.</_></rects>
      <tilted>0</tilted></_>
    <_>
      <rects>
        <_>
          11 13 33 20 -1.</_>
        <_>
          22 13 11 20 3.</_></rects>
      <tilted>0</tilted></_>
    <_>
      <rects>
        <_>
          11 23 12 4 -1.</_>
        <_>
          17 23 6 4 2.</_></rects>
      <tilted>0</tilted></_>
    <_>
      <rects>
        <_>
          12 25 18 4 -1.</_>
        <_>
          18 25 6 4 3.</_></rects>
      <tilted>0</tilted></_>
    <_>
      <rects>
        <_>
          13 9 9 9 -1.</_>
        <_>
          13 12 9 3 3.</_></rects>
      <tilted>0</tilted></_>
    <_>
      <rects>
        <_>
          13 16 26 2 -1.</_>
        <_>
          13 16 13 1 2.</_>
        <_>
          26 17 13 1 2.</_></rects>
      <tilted>0</tilted></_>
    <_>
      <rects>
        <_>
          14 23 18 2 -1.</_>
        <_>
          20 23 6 2 3.</_></rects>
      <tilted>0</tilted></_>
    <_>
      <rects>
        <_>
          14 31 7 8 -1.</_>
        <_>
          14 35 7 4 2.</_></rects>
      <tilted>0</tilted></_>
    <_>
      <rects>
        <_>
          15 19 29 9 -1.</_>
        <_>
          15 22 29 3 3.</_></rects>
      <tilted>0</tilted></_>
    <_>
      <rects>
        <_>
          18 8 14 6 -1.</_>
        <_>
          18 11 14 3 2.</_></rects>
      <tilted>0</tilted></_>
    <_>
      <rects>
        <_>
          18 16 9 7 -1.</_>
        <_>
          21 16 3 7 3.</_></rects>
      <tilted>0</tilted></_>
    <_>
      <rects>
        <_>
          18 17 12 2 -1.</_>
        <_>
          22 17 4 2 3.</_></rects>
      <tilted>0</tilted></_>
    <_>
      <rects>
        <_>
          18 21 9 2 -1.</_>
        <_>
          21 21 3 2 3.</_></rects>
      <tilted>0</tilted></_>
    <_>
      <rects>
        <_>
          18 25 2 9 -1.</_>
        <_>
          18 28 2 3 3.</_></rects>
      <tilted>0</tilted></_>
    <_>
      <rects>
        <_>
          18 29 8 6 -1.</_>
        <_>
          18 29 4 3 2.</_>
        <_>
          22 32 4 3 2.</_></rects>
      <tilted>0</tilted></_>
    <_>
      <rects>
        <_>
          18 30 8 4 -1.</_>
        <_>
          18 30 4 2 2.</_>
        <_>
          22 32 4 2 2.</_></rects>
      <tilted>0</tilted></_>
    <_>
      <rects>
        <_>
          20 19 9 24 -1.</_>
        <_>
          23 19 3 24 3.</_></rects>
      <tilted>0</tilted></_>
    <_>
      <rects>
        <_>
          20 19 12 9 -1.</_>
        <_>
          20 22 12 3 3.</_></rects>
      <tilted>0</tilted></_>
    <_>
      <rects>
        <_>
          20 20 8 6 -1.</_>
        <_>
          20 22 8 2 3.</_></rects>
      <tilted>0</tilted></_>
    <_>
      <rects>
        <_>
          20 25 4 7 -1.</_>
        <_>
          22 25 2 7 2.</_></rects>
      <tilted>0</tilted></_>
    <_>
      <rects>
        <_>
          21 13 3 6 -1.</_>
        <_>
          21 15 3 2 3.</_></rects>
      <tilted>0</tilted></_>
    <_>
      <rects>
        <_>
          21 20 5 6 -1.</_>
        <_>
          21 22 5 2 3.</_></rects>
      <tilted>0</tilted></_>
    <_>
      <rects>
        <_>
          21 22 6 5 -1.</_>
        <_>
          23 22 2 5 3.</_></rects>
      <tilted>0</tilted></_>
    <_>
      <rects>
        <_>
          21 25 6 1 -1.</_>
        <_>
          24 25 3 1 2.</_></rects>
      <tilted>0</tilted></_>
    <_>
      <rects>
        <_>
          21 35 4 8 -1.</_>
        <_>
          21 39 4 4 2.</_></rects>
      <tilted>0</tilted></_>
    <_>
      <rects>
        <_>
          22 12 4 9 -1.</_>
        <_>
          22 15 4 3 3.</_></rects>
      <tilted>0</tilted></_>
    <_>
      <rects>
        <_>
          22 19 3 9 -1.</_>
        <_>
          22 22 3 3 3.</_></rects>
      <tilted>0</tilted></_>
    <_>
      <rects>
        <_>
          22 20 3 18 -1.</_>
        <_>
          23 20 1 18 3.</_></rects>
      <tilted>0</tilted></_>
    <_>
      <rects>
        <_>
          22 20 4 6 -1.</_>
        <_>
          22 22 4 2 3.</_></rects>
      <tilted>0</tilted></_>
    <_>
      <rects>
        <_>
          22 28 11 15 -1.</_>
        <_>
          22 33 11 5 3.</_></rects>
      <tilted>0</tilted></_>
    <_>
      <rects>
        <_>
          23 15 6 6 -1.</_>
        <_>
          23 17 6 2 3.</_></rects>
      <tilted>0</tilted></_>
    <_>
      <rects>
        <_>
          23 24 4 9 -1.</_>
        <_>
          23 27 4 3 3.</_></rects>
      <tilted>0</tilted></_>
    <_>
      <rects>
        <_>
          23 26 2 1 -1.</_>
        <_>
          24 26 1 1 2.</_></rects>
      <tilted>0</tilted></_>
    <_>
      <rects>
        <_>
          23 29 12 2 -1.</_>
        <_>
          27 29 4 2 3.</_></rects>
      <tilted>0</tilted></_>
    <_>
      <rects>
        <_>
          24 22 2 3 -1.</_>
        <_>
          25 22 1 3 2.</_></rects>
      <tilted>0</tilted></_>
    <_>
      <rects>
        <_>
          25 12 6 24 -1.</_>
        <_>
          25 20 6 8 3.</_></rects>
      <tilted>0</tilted></_>
    <_>
      <rects>
        <_>
          25 14 7 18 -1.</_>
        <_>
          25 20 7 6 3.</_></rects>
      <tilted>0</tilted></_>
    <_>
      <rects>
        <_>
          26 8 3 15 -1.</_>
        <_>
          26 13 3 5 3.</_></rects>
      <tilted>0</tilted></_>
    <_>
      <rects>
        <_>
          26 20 3 18 -1.</_>
        <_>
          27 20 1 18 3.</_></rects>
      <tilted>0</tilted></_>
    <_>
      <rects>
        <_>
          26 28 3 9 -1.</_>
        <_>
          26 31 3 3 3.</_></rects>
      <tilted>0</tilted></_>
    <_>
      <rects>
        <_>
          27 10 9 6 -1.</_>
        <_>
          30 10 3 6 3.</_></rects>
      <tilted>0</tilted></_>
    <_>
      <rects>
        <_>
          27 27 6 4 -1.</_>
        <_>
          29 27 2 4 3.</_></rects>
      <tilted>0</tilted></_>
    <_>
      <rects>
        <_>
          28 22 10 6 -1.</_>
        <_>
          28 22 5 3 2.</_>
        <_>
          33 25 5 3 2.</_></rects>
      <tilted>0</tilted></_>
    <_>
      <rects>
        <_>
          28 31 7 12 -1.</_>
        <_>
          28 35 7 4 3.</_></rects>
      <tilted>0</tilted></_>
    <_>
      <rects>
        <_>
          29 17 6 10 -1.</_>
        <_>
          29 17 3 5 2.</_>
        <_>
          32 22 3 5 2.</_></rects>
      <tilted>0</tilted></_>
    <_>
      <rects>
        <_>
          31 17 6 10 -1.</_>
        <_>
          33 17 2 10 3.</_></rects>
      <tilted>0</tilted></_>
    <_>
      <rects>
        <_>
          32 14 6 6 -1.</_>
        <_>
          34 14 2 6 3.</_></rects>
      <tilted>0</tilted></_>
    <_>
      <rects>
        <_>
          34 13 3 4 -1.</_>
        <_>
          34 15 3 2 2.</_></rects>
      <tilted>0</tilted></_>
    <_>
      <rects>
        <_>
          35 17 4 9 -1.</_>
        <_>
          35 20 4 3 3.</_></rects>
      <tilted>0</tilted></_>
    <_>
      <rects>
        <_>
          36 13 12 18 -1.</_>
        <_>
          40 13 4 18 3.</_></rects>
      <tilted>0</tilted></_>
    <_>
      <rects>
        <_>
          36 21 10 5 -1.</_>
        <_>
          41 21 5 5 2.</_></rects>
      <tilted>0</tilted></_>
    <_>
      <rects>
        <_>
          39 21 1 10 -1.</_>
        <_>
          39 26 1 5 2.</_></rects>
      <tilted>0</tilted></_>
    <_>
      <rects>
        <_>
          40 22 8 7 -1.</_>
        <_>
          44 22 4 7 2.</_></rects>
      <tilted>0</tilted></_>
    <_>
      <rects>
        <_>
          42 18 6 12 -1.</_>
        <_>
          45 18 3 12 2.</_></rects>
      <tilted>0</tilted></_>
    <_>
      <rects>
        <_>
          42 20 6 4 -1.</_>
        <_>
          44 20 2 4 3.</_></rects>
      <tilted>0</tilted></_></features></cascade>
</opencv_storage>
