<?xml version="1.0"?>
<opencv_storage>
<cascade>
  <stageType>BOOST</stageType>
  <featureType>HAAR</featureType>
  <height>20</height>
  <width>20</width>
  <stageParams>
    <boostType>GAB</boostType>
    <minHitRate>9.9500000476837158e-01</minHitRate>
    <maxFalseAlarm>5.0000000000000000e-01</maxFalseAlarm>
    <weightTrimRate>9.4999999999999996e-01</weightTrimRate>
    <maxDepth>1</maxDepth>
    <maxWeakCount>100</maxWeakCount></stageParams>
  <featureParams>
    <maxCatCount>0</maxCatCount>
    <featSize>1</featSize>
    <mode>BASIC</mode></featureParams>
  <stageNum>20</stageNum>
  <stages>
    <!-- stage 0 -->
    <_>
      <maxWeakCount>9</maxWeakCount>
      <stageThreshold>-9.4941437244415283e-01</stageThreshold>
      <weakClassifiers>
        <_>
          <internalNodes>
            0 -1 230 4.3838545680046082e-02</internalNodes>
          <leafValues>
            -4.6821844577789307e-01 8.1936776638031006e-01</leafValues></_>
        <_>
          <internalNodes>
            0 -1 65 8.8913482613861561e-04</internalNodes>
          <leafValues>
            -3.8906326889991760e-01 4.9377292394638062e-01</leafValues></_>
        <_>
          <internalNodes>
            0 -1 484 -7.0412196218967438e-03</internalNodes>
          <leafValues>
            4.8269820213317871e-01 -3.2388010621070862e-01</leafValues></_>
        <_>
          <internalNodes>
            0 -1 78 -1.1873342096805573e-01</internalNodes>
          <leafValues>
            6.6598969697952271e-01 -1.9909003376960754e-01</leafValues></_>
        <_>
          <internalNodes>
            0 -1 263 1.5629775822162628e-01</internalNodes>
          <leafValues>
            -2.1924749016761780e-01 7.5181794166564941e-01</leafValues></_>
        <_>
          <internalNodes>
            0 -1 20 -2.2832319140434265e-02</internalNodes>
          <leafValues>
            5.9249556064605713e-01 -1.7020951211452484e-01</leafValues></_>
        <_>
          <internalNodes>
            0 -1 27 -2.2607784718275070e-02</internalNodes>
          <leafValues>
            4.5826026797294617e-01 -2.4638709425926208e-01</leafValues></_>
        <_>
          <internalNodes>
            0 -1 392 -2.5804296135902405e-02</internalNodes>
          <leafValues>
            5.0341516733169556e-01 -2.2679655253887177e-01</leafValues></_>
        <_>
          <internalNodes>
            0 -1 136 3.6030516028404236e-02</internalNodes>
          <leafValues>
            -1.9943873584270477e-01 5.7744586467742920e-01</leafValues></_></weakClassifiers></_>
    <!-- stage 1 -->
    <_>
      <maxWeakCount>16</maxWeakCount>
      <stageThreshold>-1.2212920188903809e+00</stageThreshold>
      <weakClassifiers>
        <_>
          <internalNodes>
            0 -1 225 1.1606919765472412e-01</internalNodes>
          <leafValues>
            -2.1771217882633209e-01 8.0056977272033691e-01</leafValues></_>
        <_>
          <internalNodes>
            0 -1 464 -1.9295029342174530e-02</internalNodes>
          <leafValues>
            5.1821923255920410e-01 -2.6094967126846313e-01</leafValues></_>
        <_>
          <internalNodes>
            0 -1 115 1.4172714145388454e-04</internalNodes>
          <leafValues>
            -3.7135082483291626e-01 3.0967903137207031e-01</leafValues></_>
        <_>
          <internalNodes>
            0 -1 503 3.8347842637449503e-03</internalNodes>
          <leafValues>
            -2.7396690845489502e-01 3.6757490038871765e-01</leafValues></_>
        <_>
          <internalNodes>
            0 -1 76 -5.9624888002872467e-02</internalNodes>
          <leafValues>
            5.4837912321090698e-01 -2.0017530024051666e-01</leafValues></_>
        <_>
          <internalNodes>
            0 -1 21 3.6678317934274673e-02</internalNodes>
          <leafValues>
            -2.0095258951187134e-01 4.9723970890045166e-01</leafValues></_>
        <_>
          <internalNodes>
            0 -1 441 1.9047149180551060e-05</internalNodes>
          <leafValues>
            -4.1449773311614990e-01 2.5476020574569702e-01</leafValues></_>
        <_>
          <internalNodes>
            0 -1 357 -5.1346458349144086e-05</internalNodes>
          <leafValues>
            2.4188283085823059e-01 -3.8840764760971069e-01</leafValues></_>
        <_>
          <internalNodes>
            0 -1 403 1.0294838808476925e-02</internalNodes>
          <leafValues>
            -2.6627945899963379e-01 3.8439288735389709e-01</leafValues></_>
        <_>
          <internalNodes>
            0 -1 193 -1.2721021194010973e-03</internalNodes>
          <leafValues>
            -6.3338887691497803e-01 1.8731869757175446e-01</leafValues></_>
        <_>
          <internalNodes>
            0 -1 10 -3.2337024807929993e-02</internalNodes>
          <leafValues>
            4.2202308773994446e-01 -2.3953540623188019e-01</leafValues></_>
        <_>
          <internalNodes>
            0 -1 275 -3.4281858243048191e-03</internalNodes>
          <leafValues>
            -7.9364204406738281e-01 1.5847361087799072e-01</leafValues></_>
        <_>
          <internalNodes>
            0 -1 104 8.5043415427207947e-02</internalNodes>
          <leafValues>
            -2.7868518233299255e-01 3.3645406365394592e-01</leafValues></_>
        <_>
          <internalNodes>
            0 -1 162 -2.2836588323116302e-03</internalNodes>
          <leafValues>
            -7.0219582319259644e-01 1.1210501939058304e-01</leafValues></_>
        <_>
          <internalNodes>
            0 -1 77 -1.4605879783630371e-01</internalNodes>
          <leafValues>
            5.6955087184906006e-01 -1.6269427537918091e-01</leafValues></_>
        <_>
          <internalNodes>
            0 -1 380 5.4367345001082867e-05</internalNodes>
          <leafValues>
            -3.9834356307983398e-01 2.9601100087165833e-01</leafValues></_></weakClassifiers></_>
    <!-- stage 2 -->
    <_>
      <maxWeakCount>14</maxWeakCount>
      <stageThreshold>-8.4861457347869873e-01</stageThreshold>
      <weakClassifiers>
        <_>
          <internalNodes>
            0 -1 61 1.9084015488624573e-01</internalNodes>
          <leafValues>
            -8.8117487728595734e-02 7.7047145366668701e-01</leafValues></_>
        <_>
          <internalNodes>
            0 -1 241 2.3134521325118840e-04</internalNodes>
          <leafValues>
            -3.8818508386611938e-01 3.4593909978866577e-01</leafValues></_>
        <_>
          <internalNodes>
            0 -1 399 4.7512059099972248e-03</internalNodes>
          <leafValues>
            -3.4784013032913208e-01 3.4807839989662170e-01</leafValues></_>
        <_>
          <internalNodes>
            0 -1 214 2.8933049179613590e-04</internalNodes>
          <leafValues>
            -4.4573831558227539e-01 2.6336947083473206e-01</leafValues></_>
        <_>
          <internalNodes>
            0 -1 538 4.8668985255062580e-03</internalNodes>
          <leafValues>
            -2.0657870173454285e-01 5.5261683464050293e-01</leafValues></_>
        <_>
          <internalNodes>
            0 -1 50 -5.4442146793007851e-03</internalNodes>
          <leafValues>
            5.8487647771835327e-01 -2.2143746912479401e-01</leafValues></_>
        <_>
          <internalNodes>
            0 -1 121 -5.3534738253802061e-04</internalNodes>
          <leafValues>
            -6.2932127714157104e-01 1.7990967631340027e-01</leafValues></_>
        <_>
          <internalNodes>
            0 -1 49 2.7758509386330843e-03</internalNodes>
          <leafValues>
            -1.9845248758792877e-01 5.7856541872024536e-01</leafValues></_>
        <_>
          <internalNodes>
            0 -1 223 -1.1787102557718754e-02</internalNodes>
          <leafValues>
            5.2497178316116333e-01 -1.5909081697463989e-01</leafValues></_>
        <_>
          <internalNodes>
            0 -1 315 2.3160590790212154e-03</internalNodes>
          <leafValues>
            -2.2066284716129303e-01 4.3358761072158813e-01</leafValues></_>
        <_>
          <internalNodes>
            0 -1 364 -7.4036284349858761e-03</internalNodes>
          <leafValues>
            5.8408391475677490e-01 -1.9281288981437683e-01</leafValues></_>
        <_>
          <internalNodes>
            0 -1 141 9.0580210089683533e-03</internalNodes>
          <leafValues>
            -2.0817428827285767e-01 5.0674200057983398e-01</leafValues></_>
        <_>
          <internalNodes>
            0 -1 55 2.7306417468935251e-03</internalNodes>
          <leafValues>
            -2.2176393866539001e-01 4.3784406781196594e-01</leafValues></_>
        <_>
          <internalNodes>
            0 -1 485 -2.6061292737722397e-03</internalNodes>
          <leafValues>
            5.4710477590560913e-01 -1.3944680988788605e-01</leafValues></_></weakClassifiers></_>
    <!-- stage 3 -->
    <_>
      <maxWeakCount>16</maxWeakCount>
      <stageThreshold>-9.1642630100250244e-01</stageThreshold>
      <weakClassifiers>
        <_>
          <internalNodes>
            0 -1 443 -2.6800494641065598e-02</internalNodes>
          <leafValues>
            7.1080505847930908e-01 -1.8985269963741302e-01</leafValues></_>
        <_>
          <internalNodes>
            0 -1 43 1.5994727611541748e-02</internalNodes>
          <leafValues>
            -2.7396491169929504e-01 4.6178376674652100e-01</leafValues></_>
        <_>
          <internalNodes>
            0 -1 242 1.6671108824084513e-05</internalNodes>
          <leafValues>
            -4.3709483742713928e-01 2.6336997747421265e-01</leafValues></_>
        <_>
          <internalNodes>
            0 -1 500 8.1278663128614426e-03</internalNodes>
          <leafValues>
            -2.4043105542659760e-01 4.5716145634651184e-01</leafValues></_>
        <_>
          <internalNodes>
            0 -1 122 -6.4379780087620020e-04</internalNodes>
          <leafValues>
            -7.0184397697448730e-01 1.2410213798284531e-01</leafValues></_>
        <_>
          <internalNodes>
            0 -1 129 -9.7392598399892449e-04</internalNodes>
          <leafValues>
            -7.4865871667861938e-01 1.3266842067241669e-01</leafValues></_>
        <_>
          <internalNodes>
            0 -1 11 -5.7829290628433228e-02</internalNodes>
          <leafValues>
            5.6153035163879395e-01 -2.0909926295280457e-01</leafValues></_>
        <_>
          <internalNodes>
            0 -1 105 2.8970402479171753e-01</internalNodes>
          <leafValues>
            -1.5113826096057892e-01 6.6629743576049805e-01</leafValues></_>
        <_>
          <internalNodes>
            0 -1 490 5.9899006737396121e-04</internalNodes>
          <leafValues>
            1.6582447290420532e-01 -6.1079519987106323e-01</leafValues></_>
        <_>
          <internalNodes>
            0 -1 7 3.4125316888093948e-02</internalNodes>
          <leafValues>
            -2.6076534390449524e-01 3.9762976765632629e-01</leafValues></_>
        <_>
          <internalNodes>
            0 -1 116 -4.2047287570312619e-04</internalNodes>
          <leafValues>
            -4.4003894925117493e-01 2.1745148301124573e-01</leafValues></_>
        <_>
          <internalNodes>
            0 -1 66 -3.0163950286805630e-03</internalNodes>
          <leafValues>
            2.7344459295272827e-01 -2.8718867897987366e-01</leafValues></_>
        <_>
          <internalNodes>
            0 -1 198 -5.5659556528553367e-04</internalNodes>
          <leafValues>
            -6.2228536605834961e-01 1.1246400326490402e-01</leafValues></_>
        <_>
          <internalNodes>
            0 -1 442 3.1691240146756172e-03</internalNodes>
          <leafValues>
            -1.9198426604270935e-01 4.3731039762496948e-01</leafValues></_>
        <_>
          <internalNodes>
            0 -1 134 -3.6216005682945251e-03</internalNodes>
          <leafValues>
            2.4548576772212982e-01 -3.7224167585372925e-01</leafValues></_>
        <_>
          <internalNodes>
            0 -1 517 5.0800601020455360e-03</internalNodes>
          <leafValues>
            -1.8978725373744965e-01 4.3863046169281006e-01</leafValues></_></weakClassifiers></_>
    <!-- stage 4 -->
    <_>
      <maxWeakCount>14</maxWeakCount>
      <stageThreshold>-8.3306258916854858e-01</stageThreshold>
      <weakClassifiers>
        <_>
          <internalNodes>
            0 -1 155 -4.5307617983780801e-04</internalNodes>
          <leafValues>
            -4.3686005473136902e-01 5.4120445251464844e-01</leafValues></_>
        <_>
          <internalNodes>
            0 -1 165 2.3521399125456810e-02</internalNodes>
          <leafValues>
            -4.1149210929870605e-01 3.8866627216339111e-01</leafValues></_>
        <_>
          <internalNodes>
            0 -1 254 9.6680026035755873e-04</internalNodes>
          <leafValues>
            1.4731670916080475e-01 -7.3168998956680298e-01</leafValues></_>
        <_>
          <internalNodes>
            0 -1 200 -2.5371590163558722e-04</internalNodes>
          <leafValues>
            -4.9404153227806091e-01 1.8530429899692535e-01</leafValues></_>
        <_>
          <internalNodes>
            0 -1 219 2.6260977610945702e-03</internalNodes>
          <leafValues>
            1.0138165205717087e-01 -8.3038556575775146e-01</leafValues></_>
        <_>
          <internalNodes>
            0 -1 504 7.4363881722092628e-03</internalNodes>
          <leafValues>
            -2.2910635173320770e-01 3.9634546637535095e-01</leafValues></_>
        <_>
          <internalNodes>
            0 -1 51 -1.2586654163897038e-02</internalNodes>
          <leafValues>
            3.9868396520614624e-01 -2.4715179204940796e-01</leafValues></_>
        <_>
          <internalNodes>
            0 -1 337 2.7942005544900894e-03</internalNodes>
          <leafValues>
            1.8395300209522247e-01 -6.1781936883926392e-01</leafValues></_>
        <_>
          <internalNodes>
            0 -1 81 1.8262945115566254e-02</internalNodes>
          <leafValues>
            -1.6970247030258179e-01 5.0980627536773682e-01</leafValues></_>
        <_>
          <internalNodes>
            0 -1 450 5.7732211425900459e-03</internalNodes>
          <leafValues>
            -2.8103581070899963e-01 2.9272943735122681e-01</leafValues></_>
        <_>
          <internalNodes>
            0 -1 265 -2.6930696330964565e-03</internalNodes>
          <leafValues>
            -7.0016914606094360e-01 1.1192072927951813e-01</leafValues></_>
        <_>
          <internalNodes>
            0 -1 60 1.0252860374748707e-02</internalNodes>
          <leafValues>
            -1.3256351649761200e-01 6.4973652362823486e-01</leafValues></_>
        <_>
          <internalNodes>
            0 -1 430 -2.9773853020742536e-04</internalNodes>
          <leafValues>
            -4.4431889057159424e-01 1.9455909729003906e-01</leafValues></_>
        <_>
          <internalNodes>
            0 -1 318 -4.9836449325084686e-02</internalNodes>
          <leafValues>
            5.4327058792114258e-01 -1.8877248466014862e-01</leafValues></_></weakClassifiers></_>
    <!-- stage 5 -->
    <_>
      <maxWeakCount>21</maxWeakCount>
      <stageThreshold>-8.7267845869064331e-01</stageThreshold>
      <weakClassifiers>
        <_>
          <internalNodes>
            0 -1 293 8.8244181824848056e-05</internalNodes>
          <leafValues>
            -2.8190743923187256e-01 5.4693365097045898e-01</leafValues></_>
        <_>
          <internalNodes>
            0 -1 105 2.2813096642494202e-01</internalNodes>
          <leafValues>
            -2.2475352883338928e-01 5.0268650054931641e-01</leafValues></_>
        <_>
          <internalNodes>
            0 -1 413 -2.1740859374403954e-03</internalNodes>
          <leafValues>
            3.5884389281272888e-01 -2.1235780417919159e-01</leafValues></_>
        <_>
          <internalNodes>
            0 -1 54 -1.4778692275285721e-03</internalNodes>
          <leafValues>
            4.5464992523193359e-01 -1.7650082707405090e-01</leafValues></_>
        <_>
          <internalNodes>
            0 -1 418 2.6756813749670982e-03</internalNodes>
          <leafValues>
            -1.9850382208824158e-01 3.7870296835899353e-01</leafValues></_>
        <_>
          <internalNodes>
            0 -1 210 -1.6380454326281324e-05</internalNodes>
          <leafValues>
            1.9123741984367371e-01 -3.4634727239608765e-01</leafValues></_>
        <_>
          <internalNodes>
            0 -1 86 -1.2709328904747963e-02</internalNodes>
          <leafValues>
            -8.1176286935806274e-01 9.0180315077304840e-02</leafValues></_>
        <_>
          <internalNodes>
            0 -1 52 6.9882324896752834e-04</internalNodes>
          <leafValues>
            -2.1339060366153717e-01 3.3653375506401062e-01</leafValues></_>
        <_>
          <internalNodes>
            0 -1 391 2.3094965144991875e-03</internalNodes>
          <leafValues>
            -3.6555770039558411e-01 1.7297239601612091e-01</leafValues></_>
        <_>
          <internalNodes>
            0 -1 379 1.7466068267822266e-02</internalNodes>
          <leafValues>
            9.3672752380371094e-02 -7.4801361560821533e-01</leafValues></_>
        <_>
          <internalNodes>
            0 -1 25 -1.1245368048548698e-02</internalNodes>
          <leafValues>
            2.7832961082458496e-01 -2.3405368626117706e-01</leafValues></_>
        <_>
          <internalNodes>
            0 -1 19 2.7736382558941841e-02</internalNodes>
          <leafValues>
            -1.1435791105031967e-01 5.2408009767532349e-01</leafValues></_>
        <_>
          <internalNodes>
            0 -1 103 -4.6055980026721954e-02</internalNodes>
          <leafValues>
            4.5983934402465820e-01 -1.3881148397922516e-01</leafValues></_>
        <_>
          <internalNodes>
            0 -1 253 -3.3262290526181459e-03</internalNodes>
          <leafValues>
            -7.6924967765808105e-01 9.6877008676528931e-02</leafValues></_>
        <_>
          <internalNodes>
            0 -1 229 1.6018223017454147e-02</internalNodes>
          <leafValues>
            -3.3705589175224304e-01 1.8287098407745361e-01</leafValues></_>
        <_>
          <internalNodes>
            0 -1 41 -4.3034479022026062e-02</internalNodes>
          <leafValues>
            4.4551739096641541e-01 -1.4158567786216736e-01</leafValues></_>
        <_>
          <internalNodes>
            0 -1 351 1.8443321096128784e-05</internalNodes>
          <leafValues>
            -2.9810574650764465e-01 2.5241780281066895e-01</leafValues></_>
        <_>
          <internalNodes>
            0 -1 287 5.6381186004728079e-04</internalNodes>
          <leafValues>
            -2.8944551944732666e-01 1.9653761386871338e-01</leafValues></_>
        <_>
          <internalNodes>
            0 -1 375 -4.5679867267608643e-02</internalNodes>
          <leafValues>
            4.4117629528045654e-01 -1.7458648979663849e-01</leafValues></_>
        <_>
          <internalNodes>
            0 -1 499 1.9670655019581318e-03</internalNodes>
          <leafValues>
            1.2037809938192368e-01 -5.8159857988357544e-01</leafValues></_>
        <_>
          <internalNodes>
            0 -1 30 -1.9149245927110314e-03</internalNodes>
          <leafValues>
            3.2308140397071838e-01 -1.8906594812870026e-01</leafValues></_></weakClassifiers></_>
    <!-- stage 6 -->
    <_>
      <maxWeakCount>24</maxWeakCount>
      <stageThreshold>-8.1363040208816528e-01</stageThreshold>
      <weakClassifiers>
        <_>
          <internalNodes>
            0 -1 354 -3.7427744246087968e-05</internalNodes>
          <leafValues>
            5.2489793300628662e-01 -2.6666668057441711e-01</leafValues></_>
        <_>
          <internalNodes>
            0 -1 186 9.2731133103370667e-02</internalNodes>
          <leafValues>
            -1.2069148570299149e-01 6.4015763998031616e-01</leafValues></_>
        <_>
          <internalNodes>
            0 -1 431 -4.5504933223128319e-04</internalNodes>
          <leafValues>
            -5.4909944534301758e-01 1.6354806721210480e-01</leafValues></_>
        <_>
          <internalNodes>
            0 -1 433 2.2253124043345451e-03</internalNodes>
          <leafValues>
            1.0585781931877136e-01 -6.9764786958694458e-01</leafValues></_>
        <_>
          <internalNodes>
            0 -1 118 -9.3137397198006511e-04</internalNodes>
          <leafValues>
            -5.7552051544189453e-01 1.1443296819925308e-01</leafValues></_>
        <_>
          <internalNodes>
            0 -1 539 6.8903393112123013e-03</internalNodes>
          <leafValues>
            -1.3904562592506409e-01 5.6471204757690430e-01</leafValues></_>
        <_>
          <internalNodes>
            0 -1 524 -4.3245358392596245e-03</internalNodes>
          <leafValues>
            4.8782294988632202e-01 -1.3812050223350525e-01</leafValues></_>
        <_>
          <internalNodes>
            0 -1 414 1.6414925456047058e-02</internalNodes>
          <leafValues>
            -1.5118910372257233e-01 4.6326950192451477e-01</leafValues></_>
        <_>
          <internalNodes>
            0 -1 130 2.8908932581543922e-03</internalNodes>
          <leafValues>
            8.9356265962123871e-02 -7.5229507684707642e-01</leafValues></_>
        <_>
          <internalNodes>
            0 -1 423 5.2040291484445333e-04</internalNodes>
          <leafValues>
            -3.3421355485916138e-01 1.8599414825439453e-01</leafValues></_>
        <_>
          <internalNodes>
            0 -1 259 -2.1411467343568802e-02</internalNodes>
          <leafValues>
            4.1457349061965942e-01 -1.4819683134555817e-01</leafValues></_>
        <_>
          <internalNodes>
            0 -1 206 8.8388128206133842e-03</internalNodes>
          <leafValues>
            -2.3044504225254059e-01 3.0602687597274780e-01</leafValues></_>
        <_>
          <internalNodes>
            0 -1 401 7.6074199751019478e-03</internalNodes>
          <leafValues>
            9.7858697175979614e-02 -7.3462688922882080e-01</leafValues></_>
        <_>
          <internalNodes>
            0 -1 44 -4.0631098672747612e-03</internalNodes>
          <leafValues>
            3.6073625087738037e-01 -1.9965131580829620e-01</leafValues></_>
        <_>
          <internalNodes>
            0 -1 529 2.7822491247206926e-03</internalNodes>
          <leafValues>
            -1.2980064749717712e-01 5.0280976295471191e-01</leafValues></_>
        <_>
          <internalNodes>
            0 -1 271 3.9335729525191709e-05</internalNodes>
          <leafValues>
            -2.9436829686164856e-01 2.0511725544929504e-01</leafValues></_>
        <_>
          <internalNodes>
            0 -1 507 1.7509426106698811e-04</internalNodes>
          <leafValues>
            -2.5565564632415771e-01 2.4851937592029572e-01</leafValues></_>
        <_>
          <internalNodes>
            0 -1 45 2.9660470318049192e-03</internalNodes>
          <leafValues>
            -9.8568297922611237e-02 5.1391094923019409e-01</leafValues></_>
        <_>
          <internalNodes>
            0 -1 336 -1.5707517042756081e-02</internalNodes>
          <leafValues>
            5.4639148712158203e-01 -9.9481090903282166e-02</leafValues></_>
        <_>
          <internalNodes>
            0 -1 471 6.0267210938036442e-04</internalNodes>
          <leafValues>
            -2.7071267366409302e-01 2.7745258808135986e-01</leafValues></_>
        <_>
          <internalNodes>
            0 -1 250 -1.8391741832601838e-05</internalNodes>
          <leafValues>
            2.2346712648868561e-01 -2.6811179518699646e-01</leafValues></_>
        <_>
          <internalNodes>
            0 -1 168 -1.4288222882896662e-03</internalNodes>
          <leafValues>
            -5.1858973503112793e-01 1.1194800585508347e-01</leafValues></_>
        <_>
          <internalNodes>
            0 -1 294 6.6273583797737956e-05</internalNodes>
          <leafValues>
            -3.6943018436431885e-01 1.5276190638542175e-01</leafValues></_>
        <_>
          <internalNodes>
            0 -1 260 1.6283829463645816e-03</internalNodes>
          <leafValues>
            -2.0779161155223846e-01 2.9034882783889771e-01</leafValues></_></weakClassifiers></_>
    <!-- stage 7 -->
    <_>
      <maxWeakCount>23</maxWeakCount>
      <stageThreshold>-8.6328881978988647e-01</stageThreshold>
      <weakClassifiers>
        <_>
          <internalNodes>
            0 -1 209 1.9039995095226914e-05</internalNodes>
          <leafValues>
            -2.0650812983512878e-01 5.5170923471450806e-01</leafValues></_>
        <_>
          <internalNodes>
            0 -1 390 1.4604095485992730e-04</internalNodes>
          <leafValues>
            -4.6035465598106384e-01 2.1664461493492126e-01</leafValues></_>
        <_>
          <internalNodes>
            0 -1 309 -5.7745062804315239e-05</internalNodes>
          <leafValues>
            1.7918568849563599e-01 -4.0079599618911743e-01</leafValues></_>
        <_>
          <internalNodes>
            0 -1 111 -1.7250842647626996e-03</internalNodes>
          <leafValues>
            -6.2119865417480469e-01 1.2176964432001114e-01</leafValues></_>
        <_>
          <internalNodes>
            0 -1 367 -2.8519721701741219e-02</internalNodes>
          <leafValues>
            4.9935522675514221e-01 -1.3451436161994934e-01</leafValues></_>
        <_>
          <internalNodes>
            0 -1 113 -2.6510909199714661e-02</internalNodes>
          <leafValues>
            4.2301589250564575e-01 -1.8207140266895294e-01</leafValues></_>
        <_>
          <internalNodes>
            0 -1 14 -4.6597927808761597e-02</internalNodes>
          <leafValues>
            5.0920063257217407e-01 -8.7507918477058411e-02</leafValues></_>
        <_>
          <internalNodes>
            0 -1 374 7.0414850488305092e-03</internalNodes>
          <leafValues>
            -1.4783056080341339e-01 3.5048791766166687e-01</leafValues></_>
        <_>
          <internalNodes>
            0 -1 424 4.8091969802044332e-05</internalNodes>
          <leafValues>
            -3.9115652441978455e-01 1.4151327311992645e-01</leafValues></_>
        <_>
          <internalNodes>
            0 -1 71 -2.1761548705399036e-03</internalNodes>
          <leafValues>
            3.3895796537399292e-01 -1.6564401984214783e-01</leafValues></_>
        <_>
          <internalNodes>
            0 -1 110 -2.1608421579003334e-02</internalNodes>
          <leafValues>
            -8.4420204162597656e-01 5.8646347373723984e-02</leafValues></_>
        <_>
          <internalNodes>
            0 -1 187 1.4574782690033317e-03</internalNodes>
          <leafValues>
            -1.5527793765068054e-01 3.6672198772430420e-01</leafValues></_>
        <_>
          <internalNodes>
            0 -1 233 -6.3810555730015039e-04</internalNodes>
          <leafValues>
            -4.4113409519195557e-01 1.4895471930503845e-01</leafValues></_>
        <_>
          <internalNodes>
            0 -1 436 2.8084814548492432e-02</internalNodes>
          <leafValues>
            -1.5582303702831268e-01 4.3513381481170654e-01</leafValues></_>
        <_>
          <internalNodes>
            0 -1 512 -4.9561589548829943e-05</internalNodes>
          <leafValues>
            2.0869284868240356e-01 -3.0275610089302063e-01</leafValues></_>
        <_>
          <internalNodes>
            0 -1 39 5.4611191153526306e-03</internalNodes>
          <leafValues>
            -1.7922946810722351e-01 3.0826953053474426e-01</leafValues></_>
        <_>
          <internalNodes>
            0 -1 434 -4.4234100729227066e-02</internalNodes>
          <leafValues>
            5.4486572742462158e-01 -9.7828663885593414e-02</leafValues></_>
        <_>
          <internalNodes>
            0 -1 63 -5.3247967734932899e-03</internalNodes>
          <leafValues>
            3.1335815787315369e-01 -1.7500439286231995e-01</leafValues></_>
        <_>
          <internalNodes>
            0 -1 456 2.4409811885561794e-04</internalNodes>
          <leafValues>
            1.4290797710418701e-01 -4.0780273079872131e-01</leafValues></_>
        <_>
          <internalNodes>
            0 -1 140 -2.5054188445210457e-03</internalNodes>
          <leafValues>
            3.2341024279594421e-01 -1.7276729643344879e-01</leafValues></_>
        <_>
          <internalNodes>
            0 -1 326 6.7812483757734299e-04</internalNodes>
          <leafValues>
            -2.4079725146293640e-01 2.3331722617149353e-01</leafValues></_>
        <_>
          <internalNodes>
            0 -1 195 1.4251544140279293e-02</internalNodes>
          <leafValues>
            5.2909545600414276e-02 -8.2862794399261475e-01</leafValues></_>
        <_>
          <internalNodes>
            0 -1 339 2.6386816054582596e-02</internalNodes>
          <leafValues>
            -1.2814846634864807e-01 4.3412977457046509e-01</leafValues></_></weakClassifiers></_>
    <!-- stage 8 -->
    <_>
      <maxWeakCount>24</maxWeakCount>
      <stageThreshold>-8.2278507947921753e-01</stageThreshold>
      <weakClassifiers>
        <_>
          <internalNodes>
            0 -1 171 -1.2736636563204229e-04</internalNodes>
          <leafValues>
            -2.4539007246494293e-01 5.3347194194793701e-01</leafValues></_>
        <_>
          <internalNodes>
            0 -1 61 2.1230331063270569e-01</internalNodes>
          <leafValues>
            -2.5282770395278931e-01 3.9004930853843689e-01</leafValues></_>
        <_>
          <internalNodes>
            0 -1 236 -1.9505151431076229e-04</internalNodes>
          <leafValues>
            -4.0214833617210388e-01 1.8835338950157166e-01</leafValues></_>
        <_>
          <internalNodes>
            0 -1 488 2.2213282063603401e-03</internalNodes>
          <leafValues>
            8.7248831987380981e-02 -6.5097415447235107e-01</leafValues></_>
        <_>
          <internalNodes>
            0 -1 237 -2.4245845270343125e-04</internalNodes>
          <leafValues>
            -3.3502128720283508e-01 1.7223340272903442e-01</leafValues></_>
        <_>
          <internalNodes>
            0 -1 451 1.7331929411739111e-03</internalNodes>
          <leafValues>
            -1.2843511998653412e-01 5.7076489925384521e-01</leafValues></_>
        <_>
          <internalNodes>
            0 -1 387 -2.7795540518127382e-04</internalNodes>
          <leafValues>
            -5.0456899404525757e-01 1.6738429665565491e-01</leafValues></_>
        <_>
          <internalNodes>
            0 -1 179 -8.1116345245391130e-04</internalNodes>
          <leafValues>
            -5.6504142284393311e-01 1.0986421257257462e-01</leafValues></_>
        <_>
          <internalNodes>
            0 -1 368 4.4402824714779854e-03</internalNodes>
          <leafValues>
            -1.2823151051998138e-01 4.9022084474563599e-01</leafValues></_>
        <_>
          <internalNodes>
            0 -1 501 -3.8195657543838024e-04</internalNodes>
          <leafValues>
            -3.2662162184715271e-01 1.6104494035243988e-01</leafValues></_>
        <_>
          <internalNodes>
            0 -1 428 1.7578329890966415e-02</internalNodes>
          <leafValues>
            -2.3759806156158447e-01 2.3387083411216736e-01</leafValues></_>
        <_>
          <internalNodes>
            0 -1 359 1.1834457982331514e-03</internalNodes>
          <leafValues>
            1.0333305597305298e-01 -5.0721728801727295e-01</leafValues></_>
        <_>
          <internalNodes>
            0 -1 28 -1.4781064353883266e-02</internalNodes>
          <leafValues>
            5.0431960821151733e-01 -1.3029676675796509e-01</leafValues></_>
        <_>
          <internalNodes>
            0 -1 114 1.9532278180122375e-01</internalNodes>
          <leafValues>
            7.2646111249923706e-02 -9.6092486381530762e-01</leafValues></_>
        <_>
          <internalNodes>
            0 -1 352 -3.2106842845678329e-03</internalNodes>
          <leafValues>
            1.9385775923728943e-01 -3.6293807625770569e-01</leafValues></_>
        <_>
          <internalNodes>
            0 -1 69 -1.8391449004411697e-02</internalNodes>
          <leafValues>
            -8.8624763488769531e-01 6.2328096479177475e-02</leafValues></_>
        <_>
          <internalNodes>
            0 -1 148 8.0339331179857254e-03</internalNodes>
          <leafValues>
            -1.1838629096746445e-01 4.6567505598068237e-01</leafValues></_>
        <_>
          <internalNodes>
            0 -1 185 3.7660850211977959e-03</internalNodes>
          <leafValues>
            -1.0891320556402206e-01 4.7472971677780151e-01</leafValues></_>
        <_>
          <internalNodes>
            0 -1 385 1.1100153438746929e-02</internalNodes>
          <leafValues>
            8.8012002408504486e-02 -6.5480250120162964e-01</leafValues></_>
        <_>
          <internalNodes>
            0 -1 53 2.0707638934254646e-02</internalNodes>
          <leafValues>
            -1.4029440283775330e-01 3.5839554667472839e-01</leafValues></_>
        <_>
          <internalNodes>
            0 -1 369 6.5883211791515350e-03</internalNodes>
          <leafValues>
            -8.9208371937274933e-02 5.4127335548400879e-01</leafValues></_>
        <_>
          <internalNodes>
            0 -1 381 -1.2234898167662323e-04</internalNodes>
          <leafValues>
            -3.2743814587593079e-01 1.8090058863162994e-01</leafValues></_>
        <_>
          <internalNodes>
            0 -1 534 4.6703191474080086e-03</internalNodes>
          <leafValues>
            -1.3143309950828552e-01 3.8475680351257324e-01</leafValues></_>
        <_>
          <internalNodes>
            0 -1 79 -5.2739523351192474e-02</internalNodes>
          <leafValues>
            2.9704242944717407e-01 -1.7076165974140167e-01</leafValues></_></weakClassifiers></_>
    <!-- stage 9 -->
    <_>
      <maxWeakCount>31</maxWeakCount>
      <stageThreshold>-9.6200668811798096e-01</stageThreshold>
      <weakClassifiers>
        <_>
          <internalNodes>
            0 -1 435 -3.1359378248453140e-02</internalNodes>
          <leafValues>
            5.4889297485351562e-01 -8.4925688803195953e-02</leafValues></_>
        <_>
          <internalNodes>
            0 -1 321 1.4529945328831673e-03</internalNodes>
          <leafValues>
            -1.0021037608385086e-01 5.3930181264877319e-01</leafValues></_>
        <_>
          <internalNodes>
            0 -1 227 -5.4055582731962204e-03</internalNodes>
          <leafValues>
            7.2392481565475464e-01 -9.3675889074802399e-02</leafValues></_>
        <_>
          <internalNodes>
            0 -1 177 9.4171188538894057e-04</internalNodes>
          <leafValues>
            -3.6640220880508423e-01 1.9436571002006531e-01</leafValues></_>
        <_>
          <internalNodes>
            0 -1 537 -8.4285587072372437e-03</internalNodes>
          <leafValues>
            5.9638249874114990e-01 -1.1396424472332001e-01</leafValues></_>
        <_>
          <internalNodes>
            0 -1 491 4.8872330226004124e-03</internalNodes>
          <leafValues>
            -1.6847643256187439e-01 3.5577863454818726e-01</leafValues></_>
        <_>
          <internalNodes>
            0 -1 495 -1.6833425033837557e-03</internalNodes>
          <leafValues>
            -3.0018490552902222e-01 1.8740570545196533e-01</leafValues></_>
        <_>
          <internalNodes>
            0 -1 31 -2.7034238446503878e-03</internalNodes>
          <leafValues>
            4.1156142950057983e-01 -1.5364998579025269e-01</leafValues></_>
        <_>
          <internalNodes>
            0 -1 427 -1.9663726561702788e-04</internalNodes>
          <leafValues>
            -4.3566301465034485e-01 1.4257033169269562e-01</leafValues></_>
        <_>
          <internalNodes>
            0 -1 32 1.4236826682463288e-03</internalNodes>
          <leafValues>
            -1.6689433157444000e-01 3.6001098155975342e-01</leafValues></_>
        <_>
          <internalNodes>
            0 -1 497 1.4027275610715151e-03</internalNodes>
          <leafValues>
            1.3732840120792389e-01 -4.5806935429573059e-01</leafValues></_>
        <_>
          <internalNodes>
            0 -1 38 1.0375937446951866e-02</internalNodes>
          <leafValues>
            -2.1024680137634277e-01 2.4296095967292786e-01</leafValues></_>
        <_>
          <internalNodes>
            0 -1 378 1.8024305973085575e-05</internalNodes>
          <leafValues>
            -3.1581354141235352e-01 1.7248806357383728e-01</leafValues></_>
        <_>
          <internalNodes>
            0 -1 281 -4.9211375415325165e-02</internalNodes>
          <leafValues>
            8.3059489727020264e-01 -7.8936770558357239e-02</leafValues></_>
        <_>
          <internalNodes>
            0 -1 73 -6.0520051047205925e-03</internalNodes>
          <leafValues>
            4.5514994859695435e-01 -1.0249850898981094e-01</leafValues></_>
        <_>
          <internalNodes>
            0 -1 132 8.9350208872929215e-04</internalNodes>
          <leafValues>
            9.4135269522666931e-02 -6.4106887578964233e-01</leafValues></_>
        <_>
          <internalNodes>
            0 -1 106 4.6509075909852982e-03</internalNodes>
          <leafValues>
            -1.1780096590518951e-01 5.1953935623168945e-01</leafValues></_>
        <_>
          <internalNodes>
            0 -1 274 -1.2806386803276837e-04</internalNodes>
          <leafValues>
            -3.1951701641082764e-01 1.6438972949981689e-01</leafValues></_>
        <_>
          <internalNodes>
            0 -1 317 5.0791129469871521e-03</internalNodes>
          <leafValues>
            -1.0392239689826965e-01 4.6294993162155151e-01</leafValues></_>
        <_>
          <internalNodes>
            0 -1 270 2.3179657757282257e-02</internalNodes>
          <leafValues>
            6.9750301539897919e-02 -7.2379124164581299e-01</leafValues></_>
        <_>
          <internalNodes>
            0 -1 419 5.1647443324327469e-03</internalNodes>
          <leafValues>
            -8.4016278386116028e-02 6.2895148992538452e-01</leafValues></_>
        <_>
          <internalNodes>
            0 -1 126 1.4621258713304996e-02</internalNodes>
          <leafValues>
            -1.5401636064052582e-01 3.1396773457527161e-01</leafValues></_>
        <_>
          <internalNodes>
            0 -1 85 -1.7543071508407593e-01</internalNodes>
          <leafValues>
            5.4079753160476685e-01 -9.5377482473850250e-02</leafValues></_>
        <_>
          <internalNodes>
            0 -1 511 -2.8636259958148003e-02</internalNodes>
          <leafValues>
            6.0039180517196655e-01 -9.5358550548553467e-02</leafValues></_>
        <_>
          <internalNodes>
            0 -1 255 1.8703957321122289e-03</internalNodes>
          <leafValues>
            8.4068216383457184e-02 -7.0675504207611084e-01</leafValues></_>
        <_>
          <internalNodes>
            0 -1 448 3.1390525400638580e-03</internalNodes>
          <leafValues>
            -1.4058960974216461e-01 3.7470588088035583e-01</leafValues></_>
        <_>
          <internalNodes>
            0 -1 404 1.0533736087381840e-02</internalNodes>
          <leafValues>
            6.8639837205410004e-02 -7.9695606231689453e-01</leafValues></_>
        <_>
          <internalNodes>
            0 -1 376 2.9929315205663443e-03</internalNodes>
          <leafValues>
            -8.1366233527660370e-02 6.8594479560852051e-01</leafValues></_>
        <_>
          <internalNodes>
            0 -1 37 -6.3389772549271584e-03</internalNodes>
          <leafValues>
            3.2431399822235107e-01 -1.3325972855091095e-01</leafValues></_>
        <_>
          <internalNodes>
            0 -1 420 2.6719353627413511e-03</internalNodes>
          <leafValues>
            9.8571918904781342e-02 -5.0238698720932007e-01</leafValues></_>
        <_>
          <internalNodes>
            0 -1 145 -3.9381376700475812e-04</internalNodes>
          <leafValues>
            2.3053810000419617e-01 -1.8779501318931580e-01</leafValues></_></weakClassifiers></_>
    <!-- stage 10 -->
    <_>
      <maxWeakCount>28</maxWeakCount>
      <stageThreshold>-7.8657108545303345e-01</stageThreshold>
      <weakClassifiers>
        <_>
          <internalNodes>
            0 -1 353 -1.6376532148569822e-03</internalNodes>
          <leafValues>
            5.1172530651092529e-01 -1.5512464940547943e-01</leafValues></_>
        <_>
          <internalNodes>
            0 -1 280 3.6762678064405918e-03</internalNodes>
          <leafValues>
            1.7813059687614441e-01 -4.9153980612754822e-01</leafValues></_>
        <_>
          <internalNodes>
            0 -1 506 1.5502147143706679e-03</internalNodes>
          <leafValues>
            -2.3628610372543335e-01 3.2510909438133240e-01</leafValues></_>
        <_>
          <internalNodes>
            0 -1 234 5.2326358854770660e-03</internalNodes>
          <leafValues>
            -3.3872401714324951e-01 2.1028706431388855e-01</leafValues></_>
        <_>
          <internalNodes>
            0 -1 17 3.6269567906856537e-02</internalNodes>
          <leafValues>
            -1.9732780754566193e-01 2.9478880763053894e-01</leafValues></_>
        <_>
          <internalNodes>
            0 -1 24 -1.0068655014038086e-02</internalNodes>
          <leafValues>
            2.3340637981891632e-01 -2.6222574710845947e-01</leafValues></_>
        <_>
          <internalNodes>
            0 -1 36 2.2577562928199768e-01</internalNodes>
          <leafValues>
            1.0022794455289841e-01 -7.8957831859588623e-01</leafValues></_>
        <_>
          <internalNodes>
            0 -1 514 6.0221774037927389e-04</internalNodes>
          <leafValues>
            9.3830123543739319e-02 -5.4877668619155884e-01</leafValues></_>
        <_>
          <internalNodes>
            0 -1 455 -3.0829117167741060e-03</internalNodes>
          <leafValues>
            -8.1482869386672974e-01 5.6733809411525726e-02</leafValues></_>
        <_>
          <internalNodes>
            0 -1 530 4.4249570928514004e-03</internalNodes>
          <leafValues>
            -1.1763706803321838e-01 4.7398459911346436e-01</leafValues></_>
        <_>
          <internalNodes>
            0 -1 415 2.1179721225053072e-03</internalNodes>
          <leafValues>
            -1.6833527386188507e-01 3.6314025521278381e-01</leafValues></_>
        <_>
          <internalNodes>
            0 -1 370 -4.6362541615962982e-03</internalNodes>
          <leafValues>
            3.5439056158065796e-01 -1.4650091528892517e-01</leafValues></_>
        <_>
          <internalNodes>
            0 -1 147 -2.4429438635706902e-03</internalNodes>
          <leafValues>
            4.4343540072441101e-01 -1.1666442453861237e-01</leafValues></_>
        <_>
          <internalNodes>
            0 -1 182 -2.3575625382363796e-03</internalNodes>
          <leafValues>
            -3.9329114556312561e-01 1.4365538954734802e-01</leafValues></_>
        <_>
          <internalNodes>
            0 -1 203 6.7346077412366867e-03</internalNodes>
          <leafValues>
            -2.0079348981380463e-01 3.0285942554473877e-01</leafValues></_>
        <_>
          <internalNodes>
            0 -1 221 2.4308662395924330e-03</internalNodes>
          <leafValues>
            8.4475755691528320e-02 -7.4847501516342163e-01</leafValues></_>
        <_>
          <internalNodes>
            0 -1 417 1.4428759459406137e-03</internalNodes>
          <leafValues>
            -1.6966895759105682e-01 2.9754155874252319e-01</leafValues></_>
        <_>
          <internalNodes>
            0 -1 365 -1.7648529261350632e-02</internalNodes>
          <leafValues>
            3.9084744453430176e-01 -1.4914451539516449e-01</leafValues></_>
        <_>
          <internalNodes>
            0 -1 277 3.2567518064752221e-04</internalNodes>
          <leafValues>
            -3.6549574136734009e-01 1.6041769087314606e-01</leafValues></_>
        <_>
          <internalNodes>
            0 -1 197 -6.8512221332639456e-04</internalNodes>
          <leafValues>
            -6.7112922668457031e-01 6.5588794648647308e-02</leafValues></_>
        <_>
          <internalNodes>
            0 -1 48 1.3631966430693865e-03</internalNodes>
          <leafValues>
            -1.1098898947238922e-01 3.9642119407653809e-01</leafValues></_>
        <_>
          <internalNodes>
            0 -1 475 4.5559005811810493e-03</internalNodes>
          <leafValues>
            -1.3626551628112793e-01 3.0413350462913513e-01</leafValues></_>
        <_>
          <internalNodes>
            0 -1 245 -1.8763693515211344e-03</internalNodes>
          <leafValues>
            -8.4463125467300415e-01 6.4315140247344971e-02</leafValues></_>
        <_>
          <internalNodes>
            0 -1 239 2.1941617887932807e-05</internalNodes>
          <leafValues>
            -3.6125510931015015e-01 1.0711496323347092e-01</leafValues></_>
        <_>
          <internalNodes>
            0 -1 284 8.7423957884311676e-03</internalNodes>
          <leafValues>
            4.0805719792842865e-02 -9.1342318058013916e-01</leafValues></_>
        <_>
          <internalNodes>
            0 -1 231 -2.8576686978340149e-02</internalNodes>
          <leafValues>
            6.6261744499206543e-01 -7.8305765986442566e-02</leafValues></_>
        <_>
          <internalNodes>
            0 -1 210 -1.6380454326281324e-05</internalNodes>
          <leafValues>
            1.6689698398113251e-01 -2.8391042351722717e-01</leafValues></_>
        <_>
          <internalNodes>
            0 -1 540 1.5304288826882839e-03</internalNodes>
          <leafValues>
            -1.1311743408441544e-01 4.1679283976554871e-01</leafValues></_></weakClassifiers></_>
    <!-- stage 11 -->
    <_>
      <maxWeakCount>37</maxWeakCount>
      <stageThreshold>-8.1181591749191284e-01</stageThreshold>
      <weakClassifiers>
        <_>
          <internalNodes>
            0 -1 349 -3.7119728513062000e-03</internalNodes>
          <leafValues>
            4.7326731681823730e-01 -1.4529915153980255e-01</leafValues></_>
        <_>
          <internalNodes>
            0 -1 18 1.6780819743871689e-02</internalNodes>
          <leafValues>
            -9.4199776649475098e-02 5.1260864734649658e-01</leafValues></_>
        <_>
          <internalNodes>
            0 -1 319 3.2302965410053730e-03</internalNodes>
          <leafValues>
            -9.0415820479393005e-02 5.6887590885162354e-01</leafValues></_>
        <_>
          <internalNodes>
            0 -1 372 -3.1646993011236191e-03</internalNodes>
          <leafValues>
            6.0404294729232788e-01 -1.0127762705087662e-01</leafValues></_>
        <_>
          <internalNodes>
            0 -1 9 -2.7058586478233337e-02</internalNodes>
          <leafValues>
            3.4037530422210693e-01 -1.8983437120914459e-01</leafValues></_>
        <_>
          <internalNodes>
            0 -1 267 8.0095037817955017e-02</internalNodes>
          <leafValues>
            -8.9693099260330200e-02 5.9984695911407471e-01</leafValues></_>
        <_>
          <internalNodes>
            0 -1 101 -6.7200839519500732e-02</internalNodes>
          <leafValues>
            3.8835987448692322e-01 -1.3019442558288574e-01</leafValues></_>
        <_>
          <internalNodes>
            0 -1 150 1.9512452185153961e-02</internalNodes>
          <leafValues>
            -1.2664264440536499e-01 3.7766817212104797e-01</leafValues></_>
        <_>
          <internalNodes>
            0 -1 93 -2.0431313663721085e-02</internalNodes>
          <leafValues>
            3.4985136985778809e-01 -1.4688748121261597e-01</leafValues></_>
        <_>
          <internalNodes>
            0 -1 526 -3.5555500071495771e-03</internalNodes>
          <leafValues>
            5.2947735786437988e-01 -1.0504595190286636e-01</leafValues></_>
        <_>
          <internalNodes>
            0 -1 529 2.0719091407954693e-03</internalNodes>
          <leafValues>
            -1.2691023945808411e-01 3.9255777001380920e-01</leafValues></_>
        <_>
          <internalNodes>
            0 -1 208 -1.1572079733014107e-02</internalNodes>
          <leafValues>
            -7.4531120061874390e-01 6.0878265649080276e-02</leafValues></_>
        <_>
          <internalNodes>
            0 -1 217 1.1189018550794572e-04</internalNodes>
          <leafValues>
            -3.4803462028503418e-01 1.2782458961009979e-01</leafValues></_>
        <_>
          <internalNodes>
            0 -1 243 -4.0794773667585105e-05</internalNodes>
          <leafValues>
            1.9033895432949066e-01 -2.4943378567695618e-01</leafValues></_>
        <_>
          <internalNodes>
            0 -1 135 1.3788102660328150e-03</internalNodes>
          <leafValues>
            -9.8331898450851440e-02 5.0136202573776245e-01</leafValues></_>
        <_>
          <internalNodes>
            0 -1 72 -2.9939557425677776e-03</internalNodes>
          <leafValues>
            3.7065678834915161e-01 -1.1863825470209122e-01</leafValues></_>
        <_>
          <internalNodes>
            0 -1 383 1.1408635182306170e-03</internalNodes>
          <leafValues>
            -2.1436935663223267e-01 2.4500334262847900e-01</leafValues></_>
        <_>
          <internalNodes>
            0 -1 238 3.8625816814601421e-03</internalNodes>
          <leafValues>
            1.3398535549640656e-01 -3.9138600230216980e-01</leafValues></_>
        <_>
          <internalNodes>
            0 -1 201 1.0514791938476264e-04</internalNodes>
          <leafValues>
            -3.8797852396965027e-01 1.2952972948551178e-01</leafValues></_>
        <_>
          <internalNodes>
            0 -1 303 -1.5218143351376057e-02</internalNodes>
          <leafValues>
            3.6963033676147461e-01 -1.3923062384128571e-01</leafValues></_>
        <_>
          <internalNodes>
            0 -1 344 1.3140758965164423e-03</internalNodes>
          <leafValues>
            -2.8368133306503296e-01 1.8806622922420502e-01</leafValues></_>
        <_>
          <internalNodes>
            0 -1 1 1.6773904208093882e-03</internalNodes>
          <leafValues>
            1.3309846818447113e-01 -3.0912092328071594e-01</leafValues></_>
        <_>
          <internalNodes>
            0 -1 262 1.3703130185604095e-02</internalNodes>
          <leafValues>
            -9.2072091996669769e-02 4.5040246844291687e-01</leafValues></_>
        <_>
          <internalNodes>
            0 -1 151 7.8265648335218430e-03</internalNodes>
          <leafValues>
            -3.0045142769813538e-01 1.5317443013191223e-01</leafValues></_>
        <_>
          <internalNodes>
            0 -1 470 2.4827402085065842e-03</internalNodes>
          <leafValues>
            1.0810123383998871e-01 -4.1152921319007874e-01</leafValues></_>
        <_>
          <internalNodes>
            0 -1 92 1.1540059000253677e-02</internalNodes>
          <leafValues>
            5.5896654725074768e-02 -7.1616721153259277e-01</leafValues></_>
        <_>
          <internalNodes>
            0 -1 67 -2.9215104877948761e-03</internalNodes>
          <leafValues>
            3.9851558208465576e-01 -1.2467450648546219e-01</leafValues></_>
        <_>
          <internalNodes>
            0 -1 460 3.5527869476936758e-04</internalNodes>
          <leafValues>
            1.5231302380561829e-01 -2.7553421258926392e-01</leafValues></_>
        <_>
          <internalNodes>
            0 -1 268 1.3293686322867870e-02</internalNodes>
          <leafValues>
            5.5573698133230209e-02 -8.6441683769226074e-01</leafValues></_>
        <_>
          <internalNodes>
            0 -1 316 1.7842443194240332e-03</internalNodes>
          <leafValues>
            -1.2487053126096725e-01 3.9658638834953308e-01</leafValues></_>
        <_>
          <internalNodes>
            0 -1 494 4.3417332926765084e-04</internalNodes>
          <leafValues>
            -1.6989384591579437e-01 2.4204768240451813e-01</leafValues></_>
        <_>
          <internalNodes>
            0 -1 202 -1.6580723226070404e-02</internalNodes>
          <leafValues>
            -5.7053190469741821e-01 7.0598788559436798e-02</leafValues></_>
        <_>
          <internalNodes>
            0 -1 447 -4.1009269654750824e-02</internalNodes>
          <leafValues>
            -3.2911327481269836e-01 1.1818200349807739e-01</leafValues></_>
        <_>
          <internalNodes>
            0 -1 174 3.3571736421436071e-03</internalNodes>
          <leafValues>
            -2.2312910854816437e-01 2.0077809691429138e-01</leafValues></_>
        <_>
          <internalNodes>
            0 -1 266 3.0065267346799374e-03</internalNodes>
          <leafValues>
            -1.1000624299049377e-01 4.1059872508049011e-01</leafValues></_>
        <_>
          <internalNodes>
            0 -1 74 3.1983116641640663e-03</internalNodes>
          <leafValues>
            -1.2346293032169342e-01 3.7209686636924744e-01</leafValues></_>
        <_>
          <internalNodes>
            0 -1 196 -1.0955652222037315e-02</internalNodes>
          <leafValues>
            5.4831022024154663e-01 -7.5691901147365570e-02</leafValues></_></weakClassifiers></_>
    <!-- stage 12 -->
    <_>
      <maxWeakCount>35</maxWeakCount>
      <stageThreshold>-8.2379370927810669e-01</stageThreshold>
      <weakClassifiers>
        <_>
          <internalNodes>
            0 -1 320 5.0778616219758987e-02</internalNodes>
          <leafValues>
            -3.9215687662363052e-02 6.1399787664413452e-01</leafValues></_>
        <_>
          <internalNodes>
            0 -1 465 -3.7617366760969162e-02</internalNodes>
          <leafValues>
            4.7146895527839661e-01 -1.2123056501150131e-01</leafValues></_>
        <_>
          <internalNodes>
            0 -1 405 2.9747597873210907e-03</internalNodes>
          <leafValues>
            1.0240196436643600e-01 -5.1675885915756226e-01</leafValues></_>
        <_>
          <internalNodes>
            0 -1 479 -1.0440520418342203e-04</internalNodes>
          <leafValues>
            -3.4842154383659363e-01 1.2455502897500992e-01</leafValues></_>
        <_>
          <internalNodes>
            0 -1 119 7.2216766420751810e-04</internalNodes>
          <leafValues>
            9.4437994062900543e-02 -4.5685192942619324e-01</leafValues></_>
        <_>
          <internalNodes>
            0 -1 128 1.1035365983843803e-02</internalNodes>
          <leafValues>
            -8.0518789589405060e-02 5.8529365062713623e-01</leafValues></_>
        <_>
          <internalNodes>
            0 -1 335 -5.6627823505550623e-04</internalNodes>
          <leafValues>
            -4.4468709826469421e-01 1.3622829318046570e-01</leafValues></_>
        <_>
          <internalNodes>
            0 -1 416 8.5765204858034849e-04</internalNodes>
          <leafValues>
            -1.4272081851959229e-01 3.3691459894180298e-01</leafValues></_>
        <_>
          <internalNodes>
            0 -1 408 -1.5474148676730692e-04</internalNodes>
          <leafValues>
            -2.7417862415313721e-01 1.4153046905994415e-01</leafValues></_>
        <_>
          <internalNodes>
            0 -1 143 -9.3608766794204712e-02</internalNodes>
          <leafValues>
            4.1046667098999023e-01 -1.0900358110666275e-01</leafValues></_>
        <_>
          <internalNodes>
            0 -1 437 -1.3483603834174573e-04</internalNodes>
          <leafValues>
            -3.8549262285232544e-01 1.2715196609497070e-01</leafValues></_>
        <_>
          <internalNodes>
            0 -1 462 1.4901690883561969e-03</internalNodes>
          <leafValues>
            9.2553764581680298e-02 -4.6056103706359863e-01</leafValues></_>
        <_>
          <internalNodes>
            0 -1 160 -3.6338707432150841e-03</internalNodes>
          <leafValues>
            3.2998275756835938e-01 -1.1638550460338593e-01</leafValues></_>
        <_>
          <internalNodes>
            0 -1 467 -1.0300129360985011e-04</internalNodes>
          <leafValues>
            -3.1930756568908691e-01 1.4779566228389740e-01</leafValues></_>
        <_>
          <internalNodes>
            0 -1 120 -9.2294404748827219e-04</internalNodes>
          <leafValues>
            -3.1844148039817810e-01 1.4943039417266846e-01</leafValues></_>
        <_>
          <internalNodes>
            0 -1 398 2.8733897488564253e-04</internalNodes>
          <leafValues>
            -2.1701599657535553e-01 2.1055608987808228e-01</leafValues></_>
        <_>
          <internalNodes>
            0 -1 290 -3.2685589976608753e-03</internalNodes>
          <leafValues>
            4.2415073513984680e-01 -1.1042850464582443e-01</leafValues></_>
        <_>
          <internalNodes>
            0 -1 190 1.5347521752119064e-02</internalNodes>
          <leafValues>
            -3.0296292901039124e-01 1.5472690761089325e-01</leafValues></_>
        <_>
          <internalNodes>
            0 -1 157 1.0438919998705387e-03</internalNodes>
          <leafValues>
            8.9646950364112854e-02 -5.0431644916534424e-01</leafValues></_>
        <_>
          <internalNodes>
            0 -1 12 -1.0569152235984802e-01</internalNodes>
          <leafValues>
            5.8124768733978271e-01 -8.8303774595260620e-02</leafValues></_>
        <_>
          <internalNodes>
            0 -1 94 1.9438495655776933e-05</internalNodes>
          <leafValues>
            -3.5563912987709045e-01 1.3549450039863586e-01</leafValues></_>
        <_>
          <internalNodes>
            0 -1 527 3.3910977654159069e-03</internalNodes>
          <leafValues>
            -1.2747000157833099e-01 3.4251713752746582e-01</leafValues></_>
        <_>
          <internalNodes>
            0 -1 382 -1.3359839795157313e-04</internalNodes>
          <leafValues>
            -2.7724924683570862e-01 1.5442216396331787e-01</leafValues></_>
        <_>
          <internalNodes>
            0 -1 215 3.8841725327074528e-03</internalNodes>
          <leafValues>
            -1.8091052770614624e-01 2.6879033446311951e-01</leafValues></_>
        <_>
          <internalNodes>
            0 -1 333 -1.5350881032645702e-02</internalNodes>
          <leafValues>
            7.1368539333343506e-01 -6.4151383936405182e-02</leafValues></_>
        <_>
          <internalNodes>
            0 -1 247 -3.8476551417261362e-03</internalNodes>
          <leafValues>
            2.8037306666374207e-01 -1.7276912927627563e-01</leafValues></_>
        <_>
          <internalNodes>
            0 -1 224 2.7189296670258045e-03</internalNodes>
          <leafValues>
            -1.0716385394334793e-01 5.0140279531478882e-01</leafValues></_>
        <_>
          <internalNodes>
            0 -1 164 -4.0927166119217873e-03</internalNodes>
          <leafValues>
            -4.0510070323944092e-01 1.2131799757480621e-01</leafValues></_>
        <_>
          <internalNodes>
            0 -1 269 -1.6402494162321091e-02</internalNodes>
          <leafValues>
            -8.0182445049285889e-01 4.9677621573209763e-02</leafValues></_>
        <_>
          <internalNodes>
            0 -1 189 4.6956595033407211e-03</internalNodes>
          <leafValues>
            -1.0825826227664948e-01 3.9425599575042725e-01</leafValues></_>
        <_>
          <internalNodes>
            0 -1 411 -1.1083917343057692e-04</internalNodes>
          <leafValues>
            -2.6245653629302979e-01 1.4988204836845398e-01</leafValues></_>
        <_>
          <internalNodes>
            0 -1 218 -2.0510438844212331e-05</internalNodes>
          <leafValues>
            1.4199844002723694e-01 -2.8887027502059937e-01</leafValues></_>
        <_>
          <internalNodes>
            0 -1 169 -5.8003899175673723e-04</internalNodes>
          <leafValues>
            3.6910489201545715e-01 -1.1986624449491501e-01</leafValues></_>
        <_>
          <internalNodes>
            0 -1 286 3.6279060877859592e-03</internalNodes>
          <leafValues>
            9.4880804419517517e-02 -4.6485999226570129e-01</leafValues></_>
        <_>
          <internalNodes>
            0 -1 332 -2.7395835146307945e-02</internalNodes>
          <leafValues>
            6.2123721837997437e-01 -7.2975583374500275e-02</leafValues></_></weakClassifiers></_>
    <!-- stage 13 -->
    <_>
      <maxWeakCount>37</maxWeakCount>
      <stageThreshold>-8.1171554327011108e-01</stageThreshold>
      <weakClassifiers>
        <_>
          <internalNodes>
            0 -1 410 -7.9219951294362545e-04</internalNodes>
          <leafValues>
            5.3964656591415405e-01 -8.9700996875762939e-02</leafValues></_>
        <_>
          <internalNodes>
            0 -1 89 -1.7021365463733673e-02</internalNodes>
          <leafValues>
            4.2079964280128479e-01 -1.0774978995323181e-01</leafValues></_>
        <_>
          <internalNodes>
            0 -1 207 9.2820744612254202e-05</internalNodes>
          <leafValues>
            -3.5022550821304321e-01 1.5094357728958130e-01</leafValues></_>
        <_>
          <internalNodes>
            0 -1 515 -2.5880697648972273e-04</internalNodes>
          <leafValues>
            -3.6493197083473206e-01 1.2782886624336243e-01</leafValues></_>
        <_>
          <internalNodes>
            0 -1 395 1.2485654093325138e-02</internalNodes>
          <leafValues>
            -2.3503936827182770e-01 2.1346913278102875e-01</leafValues></_>
        <_>
          <internalNodes>
            0 -1 175 1.0093651944771409e-03</internalNodes>
          <leafValues>
            -1.4036114513874054e-01 3.4468179941177368e-01</leafValues></_>
        <_>
          <internalNodes>
            0 -1 340 1.6671108824084513e-05</internalNodes>
          <leafValues>
            -3.7114039063453674e-01 1.3906325399875641e-01</leafValues></_>
        <_>
          <internalNodes>
            0 -1 180 2.4727899581193924e-02</internalNodes>
          <leafValues>
            -1.0200697183609009e-01 4.2941105365753174e-01</leafValues></_>
        <_>
          <internalNodes>
            0 -1 308 -5.0103402463719249e-04</internalNodes>
          <leafValues>
            -3.8970616459846497e-01 1.0217725485563278e-01</leafValues></_>
        <_>
          <internalNodes>
            0 -1 325 -2.2770563373342156e-04</internalNodes>
          <leafValues>
            -2.7613452076911926e-01 1.4696262776851654e-01</leafValues></_>
        <_>
          <internalNodes>
            0 -1 2 3.5086238384246826e-01</internalNodes>
          <leafValues>
            5.8076314628124237e-02 -7.2328943014144897e-01</leafValues></_>
        <_>
          <internalNodes>
            0 -1 449 3.2562911510467529e-03</internalNodes>
          <leafValues>
            -1.0219091176986694e-01 4.6785539388656616e-01</leafValues></_>
        <_>
          <internalNodes>
            0 -1 347 -2.1445564925670624e-04</internalNodes>
          <leafValues>
            -3.9195466041564941e-01 1.1700013279914856e-01</leafValues></_>
        <_>
          <internalNodes>
            0 -1 26 -2.2121459245681763e-01</internalNodes>
          <leafValues>
            -5.2619010210037231e-01 7.4082970619201660e-02</leafValues></_>
        <_>
          <internalNodes>
            0 -1 176 1.1149311903864145e-03</internalNodes>
          <leafValues>
            6.6559225320816040e-02 -6.2467604875564575e-01</leafValues></_>
        <_>
          <internalNodes>
            0 -1 3 2.4143135547637939e-01</internalNodes>
          <leafValues>
            7.9067386686801910e-02 -5.2416610717773438e-01</leafValues></_>
        <_>
          <internalNodes>
            0 -1 82 -5.0016073510050774e-03</internalNodes>
          <leafValues>
            3.6124077439308167e-01 -1.2061535567045212e-01</leafValues></_>
        <_>
          <internalNodes>
            0 -1 188 1.9499320536851883e-02</internalNodes>
          <leafValues>
            -1.1247026920318604e-01 3.6859300732612610e-01</leafValues></_>
        <_>
          <internalNodes>
            0 -1 191 1.0863428004086018e-02</internalNodes>
          <leafValues>
            3.3169057220220566e-02 -8.8042825460433960e-01</leafValues></_>
        <_>
          <internalNodes>
            0 -1 531 2.6833107694983482e-03</internalNodes>
          <leafValues>
            -1.0096857696771622e-01 3.9314654469490051e-01</leafValues></_>
        <_>
          <internalNodes>
            0 -1 466 -3.9154605474323034e-05</internalNodes>
          <leafValues>
            1.7057193815708160e-01 -2.2366023063659668e-01</leafValues></_>
        <_>
          <internalNodes>
            0 -1 440 1.4924115967005491e-03</internalNodes>
          <leafValues>
            -1.2484155595302582e-01 3.4866768121719360e-01</leafValues></_>
        <_>
          <internalNodes>
            0 -1 514 4.1958526708185673e-04</internalNodes>
          <leafValues>
            1.0282926261425018e-01 -4.3310999870300293e-01</leafValues></_>
        <_>
          <internalNodes>
            0 -1 289 8.2769274711608887e-02</internalNodes>
          <leafValues>
            3.4287165850400925e-02 -9.4547611474990845e-01</leafValues></_>
        <_>
          <internalNodes>
            0 -1 108 7.1912826970219612e-03</internalNodes>
          <leafValues>
            -9.1749601066112518e-02 4.7603863477706909e-01</leafValues></_>
        <_>
          <internalNodes>
            0 -1 301 1.7976880189962685e-04</internalNodes>
          <leafValues>
            1.4785346388816833e-01 -2.6132681965827942e-01</leafValues></_>
        <_>
          <internalNodes>
            0 -1 56 -2.8607116546481848e-03</internalNodes>
          <leafValues>
            2.1319758892059326e-01 -1.8213379383087158e-01</leafValues></_>
        <_>
          <internalNodes>
            0 -1 5 -1.0866212844848633e-01</internalNodes>
          <leafValues>
            5.5415594577789307e-01 -6.3402757048606873e-02</leafValues></_>
        <_>
          <internalNodes>
            0 -1 256 3.2354574650526047e-03</internalNodes>
          <leafValues>
            5.8607228100299835e-02 -7.5583231449127197e-01</leafValues></_>
        <_>
          <internalNodes>
            0 -1 99 1.4096479862928391e-03</internalNodes>
          <leafValues>
            -1.4438877999782562e-01 2.9320362210273743e-01</leafValues></_>
        <_>
          <internalNodes>
            0 -1 216 1.6389932716265321e-03</internalNodes>
          <leafValues>
            5.6721184402704239e-02 -7.1661794185638428e-01</leafValues></_>
        <_>
          <internalNodes>
            0 -1 139 4.1244849562644958e-03</internalNodes>
          <leafValues>
            -9.4455882906913757e-02 4.1925010085105896e-01</leafValues></_>
        <_>
          <internalNodes>
            0 -1 57 -1.7164219170808792e-02</internalNodes>
          <leafValues>
            2.6782006025314331e-01 -1.2999732792377472e-01</leafValues></_>
        <_>
          <internalNodes>
            0 -1 97 -9.1462547425180674e-04</internalNodes>
          <leafValues>
            2.8078657388687134e-01 -1.3829529285430908e-01</leafValues></_>
        <_>
          <internalNodes>
            0 -1 16 3.2390043139457703e-02</internalNodes>
          <leafValues>
            -1.6568180918693542e-01 2.4161967635154724e-01</leafValues></_>
        <_>
          <internalNodes>
            0 -1 35 3.8689881330356002e-04</internalNodes>
          <leafValues>
            1.2879508733749390e-01 -3.2797580957412720e-01</leafValues></_>
        <_>
          <internalNodes>
            0 -1 518 3.8989584427326918e-03</internalNodes>
          <leafValues>
            -1.3887144625186920e-01 2.9202204942703247e-01</leafValues></_></weakClassifiers></_>
    <!-- stage 14 -->
    <_>
      <maxWeakCount>31</maxWeakCount>
      <stageThreshold>-7.5300848484039307e-01</stageThreshold>
      <weakClassifiers>
        <_>
          <internalNodes>
            0 -1 211 2.6629378553479910e-03</internalNodes>
          <leafValues>
            -1.1668483912944794e-01 5.5494755506515503e-01</leafValues></_>
        <_>
          <internalNodes>
            0 -1 458 -2.9116967925801873e-04</internalNodes>
          <leafValues>
            2.6199352741241455e-01 -2.8095033764839172e-01</leafValues></_>
        <_>
          <internalNodes>
            0 -1 90 -5.6981376837939024e-04</internalNodes>
          <leafValues>
            -4.2207053303718567e-01 1.0974635928869247e-01</leafValues></_>
        <_>
          <internalNodes>
            0 -1 334 1.4382605440914631e-03</internalNodes>
          <leafValues>
            -2.6741039752960205e-01 1.6909845173358917e-01</leafValues></_>
        <_>
          <internalNodes>
            0 -1 400 7.5399475172162056e-03</internalNodes>
          <leafValues>
            9.1317132115364075e-02 -4.5568585395812988e-01</leafValues></_>
        <_>
          <internalNodes>
            0 -1 248 -1.2611338868737221e-02</internalNodes>
          <leafValues>
            4.4880425930023193e-01 -9.8583072423934937e-02</leafValues></_>
        <_>
          <internalNodes>
            0 -1 198 -5.0602218834683299e-04</internalNodes>
          <leafValues>
            -5.5780625343322754e-01 9.1142460703849792e-02</leafValues></_>
        <_>
          <internalNodes>
            0 -1 438 -2.1512690000236034e-04</internalNodes>
          <leafValues>
            -4.0046045184135437e-01 1.0599165409803391e-01</leafValues></_>
        <_>
          <internalNodes>
            0 -1 348 1.1103990254923701e-04</internalNodes>
          <leafValues>
            -2.7539464831352234e-01 1.7096772789955139e-01</leafValues></_>
        <_>
          <internalNodes>
            0 -1 483 4.3176929466426373e-03</internalNodes>
          <leafValues>
            -6.4531356096267700e-02 5.9152680635452271e-01</leafValues></_>
        <_>
          <internalNodes>
            0 -1 153 2.1116418793099001e-05</internalNodes>
          <leafValues>
            -3.3999985456466675e-01 1.3032226264476776e-01</leafValues></_>
        <_>
          <internalNodes>
            0 -1 47 2.4468158371746540e-03</internalNodes>
          <leafValues>
            -1.2440938502550125e-01 3.2005411386489868e-01</leafValues></_>
        <_>
          <internalNodes>
            0 -1 397 2.1862087305635214e-04</internalNodes>
          <leafValues>
            -1.8530113995075226e-01 2.4003680050373077e-01</leafValues></_>
        <_>
          <internalNodes>
            0 -1 131 4.6134609729051590e-03</internalNodes>
          <leafValues>
            -2.0524303615093231e-01 2.6223292946815491e-01</leafValues></_>
        <_>
          <internalNodes>
            0 -1 194 8.8958174455910921e-04</internalNodes>
          <leafValues>
            1.2300240248441696e-01 -3.5963240265846252e-01</leafValues></_>
        <_>
          <internalNodes>
            0 -1 285 -3.0203787609934807e-03</internalNodes>
          <leafValues>
            4.5857825875282288e-01 -1.0026619583368301e-01</leafValues></_>
        <_>
          <internalNodes>
            0 -1 396 1.9216113723814487e-03</internalNodes>
          <leafValues>
            -1.8749833106994629e-01 2.7374434471130371e-01</leafValues></_>
        <_>
          <internalNodes>
            0 -1 291 1.9916347810067236e-05</internalNodes>
          <leafValues>
            -2.7041363716125488e-01 1.6215664148330688e-01</leafValues></_>
        <_>
          <internalNodes>
            0 -1 54 -1.0528864804655313e-03</internalNodes>
          <leafValues>
            2.6828119158744812e-01 -1.5294344723224640e-01</leafValues></_>
        <_>
          <internalNodes>
            0 -1 204 2.3737552110105753e-03</internalNodes>
          <leafValues>
            5.3441476076841354e-02 -7.5937467813491821e-01</leafValues></_>
        <_>
          <internalNodes>
            0 -1 371 -7.9644948244094849e-02</internalNodes>
          <leafValues>
            5.0290745496749878e-01 -8.6539261043071747e-02</leafValues></_>
        <_>
          <internalNodes>
            0 -1 329 -3.9770340663380921e-04</internalNodes>
          <leafValues>
            -3.5664975643157959e-01 1.3713023066520691e-01</leafValues></_>
        <_>
          <internalNodes>
            0 -1 220 -2.1617911988869309e-04</internalNodes>
          <leafValues>
            1.3866011798381805e-01 -3.6770614981651306e-01</leafValues></_>
        <_>
          <internalNodes>
            0 -1 505 3.2030132133513689e-03</internalNodes>
          <leafValues>
            -8.8600821793079376e-02 4.7344812750816345e-01</leafValues></_>
        <_>
          <internalNodes>
            0 -1 453 4.4503647950477898e-04</internalNodes>
          <leafValues>
            1.0954836010932922e-01 -4.8829340934753418e-01</leafValues></_>
        <_>
          <internalNodes>
            0 -1 373 4.5229932293295860e-03</internalNodes>
          <leafValues>
            -1.4135935902595520e-01 2.7965793013572693e-01</leafValues></_>
        <_>
          <internalNodes>
            0 -1 378 1.8024305973085575e-05</internalNodes>
          <leafValues>
            -3.1900867819786072e-01 1.1181573569774628e-01</leafValues></_>
        <_>
          <internalNodes>
            0 -1 62 -1.8406771123409271e-02</internalNodes>
          <leafValues>
            3.9337685704231262e-01 -1.1984667181968689e-01</leafValues></_>
        <_>
          <internalNodes>
            0 -1 463 -3.5274942638352513e-04</internalNodes>
          <leafValues>
            -3.1580427289009094e-01 1.4376202225685120e-01</leafValues></_>
        <_>
          <internalNodes>
            0 -1 300 -1.7296625301241875e-03</internalNodes>
          <leafValues>
            2.1830980479717255e-01 -1.7766159772872925e-01</leafValues></_>
        <_>
          <internalNodes>
            0 -1 276 -8.9034335687756538e-03</internalNodes>
          <leafValues>
            -2.6040095090866089e-01 1.8106526136398315e-01</leafValues></_></weakClassifiers></_>
    <!-- stage 15 -->
    <_>
      <maxWeakCount>31</maxWeakCount>
      <stageThreshold>-7.0555484294891357e-01</stageThreshold>
      <weakClassifiers>
        <_>
          <internalNodes>
            0 -1 377 -8.8998258113861084e-02</internalNodes>
          <leafValues>
            5.8711719512939453e-01 -1.6447368543595076e-03</leafValues></_>
        <_>
          <internalNodes>
            0 -1 298 4.9900190788321197e-05</internalNodes>
          <leafValues>
            -3.7664785981178284e-01 1.8000240623950958e-01</leafValues></_>
        <_>
          <internalNodes>
            0 -1 68 -7.2606228291988373e-02</internalNodes>
          <leafValues>
            -6.8680900335311890e-01 6.6385149955749512e-02</leafValues></_>
        <_>
          <internalNodes>
            0 -1 516 7.6066679321229458e-04</internalNodes>
          <leafValues>
            6.9118186831474304e-02 -6.1482930183410645e-01</leafValues></_>
        <_>
          <internalNodes>
            0 -1 398 -1.0729229543358088e-03</internalNodes>
          <leafValues>
            3.4986820816993713e-01 -1.1305622011423111e-01</leafValues></_>
        <_>
          <internalNodes>
            0 -1 402 3.6271972930990160e-05</internalNodes>
          <leafValues>
            -3.3152696490287781e-01 1.6654728353023529e-01</leafValues></_>
        <_>
          <internalNodes>
            0 -1 444 1.3642315752804279e-03</internalNodes>
          <leafValues>
            -1.4789009094238281e-01 3.6507263779640198e-01</leafValues></_>
        <_>
          <internalNodes>
            0 -1 480 -8.0477748997509480e-04</internalNodes>
          <leafValues>
            -6.1512249708175659e-01 7.6834216713905334e-02</leafValues></_>
        <_>
          <internalNodes>
            0 -1 407 -1.9402690231800079e-02</internalNodes>
          <leafValues>
            5.8278644084930420e-01 -9.1851904988288879e-02</leafValues></_>
        <_>
          <internalNodes>
            0 -1 366 -4.3816905235871673e-04</internalNodes>
          <leafValues>
            2.1857531368732452e-01 -2.2404572367668152e-01</leafValues></_>
        <_>
          <internalNodes>
            0 -1 296 -3.5852957807946950e-05</internalNodes>
          <leafValues>
            1.9113594293594360e-01 -2.2441841661930084e-01</leafValues></_>
        <_>
          <internalNodes>
            0 -1 502 1.1892914772033691e-03</internalNodes>
          <leafValues>
            7.6447673141956329e-02 -6.3125079870223999e-01</leafValues></_>
        <_>
          <internalNodes>
            0 -1 219 3.5197632387280464e-03</internalNodes>
          <leafValues>
            3.4923631697893143e-02 -9.5131736993789673e-01</leafValues></_>
        <_>
          <internalNodes>
            0 -1 535 4.9002729356288910e-03</internalNodes>
          <leafValues>
            -1.4995595812797546e-01 2.5818398594856262e-01</leafValues></_>
        <_>
          <internalNodes>
            0 -1 429 1.2149077374488115e-03</internalNodes>
          <leafValues>
            1.1044290661811829e-01 -3.7422806024551392e-01</leafValues></_>
        <_>
          <internalNodes>
            0 -1 509 -1.6820949316024780e-01</internalNodes>
          <leafValues>
            -6.2897443771362305e-01 6.6335819661617279e-02</leafValues></_>
        <_>
          <internalNodes>
            0 -1 461 2.0973846403649077e-05</internalNodes>
          <leafValues>
            -2.8125554323196411e-01 1.3248699903488159e-01</leafValues></_>
        <_>
          <internalNodes>
            0 -1 299 1.8249435350298882e-02</internalNodes>
          <leafValues>
            -8.3335205912590027e-02 5.2939248085021973e-01</leafValues></_>
        <_>
          <internalNodes>
            0 -1 476 -3.1419023871421814e-03</internalNodes>
          <leafValues>
            1.8706671893596649e-01 -2.5664561986923218e-01</leafValues></_>
        <_>
          <internalNodes>
            0 -1 406 8.5238972678780556e-03</internalNodes>
          <leafValues>
            5.5162291973829269e-02 -6.3834023475646973e-01</leafValues></_>
        <_>
          <internalNodes>
            0 -1 362 -3.6222852941136807e-05</internalNodes>
          <leafValues>
            1.9087724387645721e-01 -2.0116280019283295e-01</leafValues></_>
        <_>
          <internalNodes>
            0 -1 166 2.7489726198837161e-04</internalNodes>
          <leafValues>
            -3.3273094892501831e-01 1.1717082560062408e-01</leafValues></_>
        <_>
          <internalNodes>
            0 -1 64 8.9767828583717346e-02</internalNodes>
          <leafValues>
            -7.3882825672626495e-02 6.1063385009765625e-01</leafValues></_>
        <_>
          <internalNodes>
            0 -1 6 -1.0716120898723602e-01</internalNodes>
          <leafValues>
            5.7385432720184326e-01 -5.9016309678554535e-02</leafValues></_>
        <_>
          <internalNodes>
            0 -1 13 4.1911534965038300e-02</internalNodes>
          <leafValues>
            -1.7146389186382294e-01 2.5112718343734741e-01</leafValues></_>
        <_>
          <internalNodes>
            0 -1 481 -5.0038397312164307e-03</internalNodes>
          <leafValues>
            3.4421053528785706e-01 -1.2133883684873581e-01</leafValues></_>
        <_>
          <internalNodes>
            0 -1 477 -1.9970994442701340e-02</internalNodes>
          <leafValues>
            -3.2470136880874634e-01 1.5489654242992401e-01</leafValues></_>
        <_>
          <internalNodes>
            0 -1 457 -3.0976003035902977e-02</internalNodes>
          <leafValues>
            7.7905040979385376e-01 -5.6612081825733185e-02</leafValues></_>
        <_>
          <internalNodes>
            0 -1 88 5.0330073572695255e-03</internalNodes>
          <leafValues>
            7.9959638416767120e-02 -5.1636987924575806e-01</leafValues></_>
        <_>
          <internalNodes>
            0 -1 394 -1.3131203013472259e-04</internalNodes>
          <leafValues>
            -2.9301527142524719e-01 1.1868948489427567e-01</leafValues></_>
        <_>
          <internalNodes>
            0 -1 206 7.8416392207145691e-03</internalNodes>
          <leafValues>
            -1.9872941076755524e-01 2.0583832263946533e-01</leafValues></_></weakClassifiers></_>
    <!-- stage 16 -->
    <_>
      <maxWeakCount>47</maxWeakCount>
      <stageThreshold>-7.4147689342498779e-01</stageThreshold>
      <weakClassifiers>
        <_>
          <internalNodes>
            0 -1 161 8.9468594524078071e-05</internalNodes>
          <leafValues>
            4.6033300459384918e-02 5.0885593891143799e-01</leafValues></_>
        <_>
          <internalNodes>
            0 -1 338 3.2089385204017162e-03</internalNodes>
          <leafValues>
            1.4652526378631592e-01 -3.6937686800956726e-01</leafValues></_>
        <_>
          <internalNodes>
            0 -1 345 4.8481335397809744e-05</internalNodes>
          <leafValues>
            -4.1175082325935364e-01 1.1846260726451874e-01</leafValues></_>
        <_>
          <internalNodes>
            0 -1 144 -5.4996553808450699e-03</internalNodes>
          <leafValues>
            4.1946536302566528e-01 -1.0193303972482681e-01</leafValues></_>
        <_>
          <internalNodes>
            0 -1 84 7.2004413232207298e-03</internalNodes>
          <leafValues>
            -1.6852927207946777e-01 3.1050685048103333e-01</leafValues></_>
        <_>
          <internalNodes>
            0 -1 222 1.5548441559076309e-02</internalNodes>
          <leafValues>
            -1.4051769673824310e-01 2.7915838360786438e-01</leafValues></_>
        <_>
          <internalNodes>
            0 -1 363 -3.3972191158682108e-04</internalNodes>
          <leafValues>
            2.0528887212276459e-01 -2.3506112396717072e-01</leafValues></_>
        <_>
          <internalNodes>
            0 -1 30 -6.2068048864603043e-03</internalNodes>
          <leafValues>
            4.3796560168266296e-01 -1.0293006151914597e-01</leafValues></_>
        <_>
          <internalNodes>
            0 -1 323 -3.6304211243987083e-03</internalNodes>
          <leafValues>
            5.1912724971771240e-01 -7.3907777667045593e-02</leafValues></_>
        <_>
          <internalNodes>
            0 -1 292 1.7506017684354447e-05</internalNodes>
          <leafValues>
            -2.9375004768371582e-01 1.3285905122756958e-01</leafValues></_>
        <_>
          <internalNodes>
            0 -1 519 -2.9094601050019264e-03</internalNodes>
          <leafValues>
            5.8994126319885254e-01 -7.6219163835048676e-02</leafValues></_>
        <_>
          <internalNodes>
            0 -1 282 -9.1656096628867090e-05</internalNodes>
          <leafValues>
            -2.7785807847976685e-01 1.4042817056179047e-01</leafValues></_>
        <_>
          <internalNodes>
            0 -1 154 -4.6065412461757660e-03</internalNodes>
          <leafValues>
            -1.2817804515361786e-01 3.3380788564682007e-01</leafValues></_>
        <_>
          <internalNodes>
            0 -1 346 2.7395638171583414e-03</internalNodes>
          <leafValues>
            -2.8076606988906860e-01 1.6429090499877930e-01</leafValues></_>
        <_>
          <internalNodes>
            0 -1 483 -6.4723845571279526e-03</internalNodes>
          <leafValues>
            5.7794874906539917e-01 -6.2783047556877136e-02</leafValues></_>
        <_>
          <internalNodes>
            0 -1 184 -6.7553305998444557e-03</internalNodes>
          <leafValues>
            3.6751592159271240e-01 -9.8596557974815369e-02</leafValues></_>
        <_>
          <internalNodes>
            0 -1 360 -1.1815812438726425e-02</internalNodes>
          <leafValues>
            4.1972005367279053e-01 -8.7218970060348511e-02</leafValues></_>
        <_>
          <internalNodes>
            0 -1 533 -1.3125361874699593e-02</internalNodes>
          <leafValues>
            4.5258256793022156e-01 -8.4253214299678802e-02</leafValues></_>
        <_>
          <internalNodes>
            0 -1 75 3.4424930810928345e-01</internalNodes>
          <leafValues>
            -6.6015928983688354e-02 5.6661731004714966e-01</leafValues></_>
        <_>
          <internalNodes>
            0 -1 386 2.0958208478987217e-03</internalNodes>
          <leafValues>
            1.0550443828105927e-01 -3.7707284092903137e-01</leafValues></_>
        <_>
          <internalNodes>
            0 -1 314 2.5419727899134159e-03</internalNodes>
          <leafValues>
            -1.3410642743110657e-01 2.6037895679473877e-01</leafValues></_>
        <_>
          <internalNodes>
            0 -1 513 -7.2759459726512432e-04</internalNodes>
          <leafValues>
            -4.8289474844932556e-01 8.0033704638481140e-02</leafValues></_>
        <_>
          <internalNodes>
            0 -1 100 -1.9786939024925232e-02</internalNodes>
          <leafValues>
            3.4644916653633118e-01 -9.9172785878181458e-02</leafValues></_>
        <_>
          <internalNodes>
            0 -1 472 1.1338974349200726e-02</internalNodes>
          <leafValues>
            -9.0740531682968140e-02 4.0197321772575378e-01</leafValues></_>
        <_>
          <internalNodes>
            0 -1 232 5.7822566304821521e-05</internalNodes>
          <leafValues>
            -2.5646436214447021e-01 1.5756890177726746e-01</leafValues></_>
        <_>
          <internalNodes>
            0 -1 149 9.4414819031953812e-03</internalNodes>
          <leafValues>
            -6.5722905099391937e-02 5.8694481849670410e-01</leafValues></_>
        <_>
          <internalNodes>
            0 -1 107 -1.1261899489909410e-03</internalNodes>
          <leafValues>
            3.1285992264747620e-01 -1.1947299540042877e-01</leafValues></_>
        <_>
          <internalNodes>
            0 -1 532 -4.0061207255348563e-04</internalNodes>
          <leafValues>
            -3.1593605875968933e-01 1.1980229616165161e-01</leafValues></_>
        <_>
          <internalNodes>
            0 -1 489 -4.4359912863001227e-04</internalNodes>
          <leafValues>
            1.7834295332431793e-01 -2.1316218376159668e-01</leafValues></_>
        <_>
          <internalNodes>
            0 -1 498 -4.5705342199653387e-04</internalNodes>
          <leafValues>
            -3.2091668248176575e-01 1.1391300708055496e-01</leafValues></_>
        <_>
          <internalNodes>
            0 -1 22 3.8056089542806149e-03</internalNodes>
          <leafValues>
            -8.9741483330726624e-02 3.8595309853553772e-01</leafValues></_>
        <_>
          <internalNodes>
            0 -1 137 3.4975085873156786e-03</internalNodes>
          <leafValues>
            -6.9571629166603088e-02 4.3234279751777649e-01</leafValues></_>
        <_>
          <internalNodes>
            0 -1 456 1.4549650950357318e-04</internalNodes>
          <leafValues>
            1.1570894718170166e-01 -3.0274140834808350e-01</leafValues></_>
        <_>
          <internalNodes>
            0 -1 311 -6.6947285085916519e-04</internalNodes>
          <leafValues>
            -2.9941585659980774e-01 9.7112081944942474e-02</leafValues></_>
        <_>
          <internalNodes>
            0 -1 342 4.5846264809370041e-02</internalNodes>
          <leafValues>
            2.7145415544509888e-02 -9.4532614946365356e-01</leafValues></_>
        <_>
          <internalNodes>
            0 -1 521 3.6679271142929792e-03</internalNodes>
          <leafValues>
            -9.7492113709449768e-02 3.4271320700645447e-01</leafValues></_>
        <_>
          <internalNodes>
            0 -1 409 -9.7902328707277775e-04</internalNodes>
          <leafValues>
            3.3284834027290344e-01 -8.8272131979465485e-02</leafValues></_>
        <_>
          <internalNodes>
            0 -1 240 7.3262564837932587e-03</internalNodes>
          <leafValues>
            -1.2968316674232483e-01 2.7857828140258789e-01</leafValues></_>
        <_>
          <internalNodes>
            0 -1 288 8.6667994037270546e-03</internalNodes>
          <leafValues>
            7.2366990149021149e-02 -5.9107178449630737e-01</leafValues></_>
        <_>
          <internalNodes>
            0 -1 181 3.9997398853302002e-03</internalNodes>
          <leafValues>
            4.6727318316698074e-02 -5.9477931261062622e-01</leafValues></_>
        <_>
          <internalNodes>
            0 -1 261 2.7398248203098774e-03</internalNodes>
          <leafValues>
            -9.2171557247638702e-02 4.2296493053436279e-01</leafValues></_>
        <_>
          <internalNodes>
            0 -1 358 4.5389530714601278e-04</internalNodes>
          <leafValues>
            1.0373175889253616e-01 -3.5203585028648376e-01</leafValues></_>
        <_>
          <internalNodes>
            0 -1 305 5.3407393395900726e-02</internalNodes>
          <leafValues>
            -4.7655116766691208e-02 9.0387457609176636e-01</leafValues></_>
        <_>
          <internalNodes>
            0 -1 355 -4.9617094919085503e-04</internalNodes>
          <leafValues>
            1.1170173436403275e-01 -3.5302761197090149e-01</leafValues></_>
        <_>
          <internalNodes>
            0 -1 125 -2.5648050941526890e-03</internalNodes>
          <leafValues>
            4.1268098354339600e-01 -9.1357842087745667e-02</leafValues></_>
        <_>
          <internalNodes>
            0 -1 478 -1.0945489630103111e-02</internalNodes>
          <leafValues>
            1.4192484319210052e-01 -2.9199469089508057e-01</leafValues></_>
        <_>
          <internalNodes>
            0 -1 273 -5.8260243386030197e-03</internalNodes>
          <leafValues>
            5.0819301605224609e-01 -6.9838047027587891e-02</leafValues></_></weakClassifiers></_>
    <!-- stage 17 -->
    <_>
      <maxWeakCount>47</maxWeakCount>
      <stageThreshold>-7.3354989290237427e-01</stageThreshold>
      <weakClassifiers>
        <_>
          <internalNodes>
            0 -1 361 -6.2964660173747689e-05</internalNodes>
          <leafValues>
            4.8659625649452209e-01 -1.3580246269702911e-01</leafValues></_>
        <_>
          <internalNodes>
            0 -1 496 4.0331818163394928e-02</internalNodes>
          <leafValues>
            -1.2750130891799927e-01 3.5423535108566284e-01</leafValues></_>
        <_>
          <internalNodes>
            0 -1 525 1.1964719742536545e-03</internalNodes>
          <leafValues>
            9.7615800797939301e-02 -4.0982288122177124e-01</leafValues></_>
        <_>
          <internalNodes>
            0 -1 30 -2.5461432524025440e-03</internalNodes>
          <leafValues>
            2.7979663014411926e-01 -1.3669387996196747e-01</leafValues></_>
        <_>
          <internalNodes>
            0 -1 279 2.4107959121465683e-02</internalNodes>
          <leafValues>
            -1.1878056824207306e-01 5.1139819622039795e-01</leafValues></_>
        <_>
          <internalNodes>
            0 -1 158 -9.4439700478687882e-04</internalNodes>
          <leafValues>
            -4.2110455036163330e-01 1.3601191341876984e-01</leafValues></_>
        <_>
          <internalNodes>
            0 -1 15 2.3721673060208559e-03</internalNodes>
          <leafValues>
            -1.8786557018756866e-01 2.9591098427772522e-01</leafValues></_>
        <_>
          <internalNodes>
            0 -1 51 -8.4520876407623291e-03</internalNodes>
          <leafValues>
            2.0763912796974182e-01 -1.8034557998180389e-01</leafValues></_>
        <_>
          <internalNodes>
            0 -1 277 1.8492311937734485e-04</internalNodes>
          <leafValues>
            -3.5392603278160095e-01 1.0396251082420349e-01</leafValues></_>
        <_>
          <internalNodes>
            0 -1 421 -2.6968325255438685e-04</internalNodes>
          <leafValues>
            -2.6194113492965698e-01 1.3539811968803406e-01</leafValues></_>
        <_>
          <internalNodes>
            0 -1 422 -2.6843056548386812e-04</internalNodes>
          <leafValues>
            -3.5748818516731262e-01 9.6616372466087341e-02</leafValues></_>
        <_>
          <internalNodes>
            0 -1 508 5.1954598166048527e-04</internalNodes>
          <leafValues>
            -1.6117720305919647e-01 2.3473450541496277e-01</leafValues></_>
        <_>
          <internalNodes>
            0 -1 493 -1.6429916024208069e-02</internalNodes>
          <leafValues>
            4.5518028736114502e-01 -8.4992699325084686e-02</leafValues></_>
        <_>
          <internalNodes>
            0 -1 295 -2.7222072705626488e-02</internalNodes>
          <leafValues>
            -8.5793948173522949e-01 4.0804900228977203e-02</leafValues></_>
        <_>
          <internalNodes>
            0 -1 59 1.5452128648757935e-01</internalNodes>
          <leafValues>
            4.2446587234735489e-02 -6.3119155168533325e-01</leafValues></_>
        <_>
          <internalNodes>
            0 -1 469 1.5469761565327644e-03</internalNodes>
          <leafValues>
            5.8461640030145645e-02 -5.1026636362075806e-01</leafValues></_>
        <_>
          <internalNodes>
            0 -1 192 -3.7060957401990891e-03</internalNodes>
          <leafValues>
            4.1952797770500183e-01 -8.5734963417053223e-02</leafValues></_>
        <_>
          <internalNodes>
            0 -1 341 9.8672485910356045e-04</internalNodes>
          <leafValues>
            -2.6980173587799072e-01 1.4130562543869019e-01</leafValues></_>
        <_>
          <internalNodes>
            0 -1 312 1.0107835754752159e-02</internalNodes>
          <leafValues>
            -1.4609050750732422e-01 2.4023970961570740e-01</leafValues></_>
        <_>
          <internalNodes>
            0 -1 228 -3.1649484299123287e-03</internalNodes>
          <leafValues>
            4.6981656551361084e-01 -6.1952695250511169e-02</leafValues></_>
        <_>
          <internalNodes>
            0 -1 40 -4.6514175832271576e-02</internalNodes>
          <leafValues>
            4.3898069858551025e-01 -7.2087466716766357e-02</leafValues></_>
        <_>
          <internalNodes>
            0 -1 278 7.3715462349355221e-05</internalNodes>
          <leafValues>
            -3.0471780896186829e-01 1.3528063893318176e-01</leafValues></_>
        <_>
          <internalNodes>
            0 -1 67 1.8407413735985756e-03</internalNodes>
          <leafValues>
            -8.3864748477935791e-02 3.9137557148933411e-01</leafValues></_>
        <_>
          <internalNodes>
            0 -1 33 -1.0190250352025032e-02</internalNodes>
          <leafValues>
            -3.9137446880340576e-01 9.1433562338352203e-02</leafValues></_>
        <_>
          <internalNodes>
            0 -1 129 -2.5882979389280081e-04</internalNodes>
          <leafValues>
            -3.3849582076072693e-01 9.5511391758918762e-02</leafValues></_>
        <_>
          <internalNodes>
            0 -1 510 -9.1434046626091003e-03</internalNodes>
          <leafValues>
            -6.3862621784210205e-01 4.9947798252105713e-02</leafValues></_>
        <_>
          <internalNodes>
            0 -1 455 -2.4311870802193880e-03</internalNodes>
          <leafValues>
            -6.6546016931533813e-01 4.0088750422000885e-02</leafValues></_>
        <_>
          <internalNodes>
            0 -1 264 -7.8258197754621506e-03</internalNodes>
          <leafValues>
            2.6244065165519714e-01 -1.1622201651334763e-01</leafValues></_>
        <_>
          <internalNodes>
            0 -1 322 1.4073173515498638e-03</internalNodes>
          <leafValues>
            -1.3364391028881073e-01 2.6437509059906006e-01</leafValues></_>
        <_>
          <internalNodes>
            0 -1 445 -2.4288121494464576e-04</internalNodes>
          <leafValues>
            2.3386496305465698e-01 -1.4814920723438263e-01</leafValues></_>
        <_>
          <internalNodes>
            0 -1 310 -3.9241858758032322e-04</internalNodes>
          <leafValues>
            -4.2059370875358582e-01 9.3288697302341461e-02</leafValues></_>
        <_>
          <internalNodes>
            0 -1 127 -3.5517369396984577e-03</internalNodes>
          <leafValues>
            3.0221161246299744e-01 -1.1948250979185104e-01</leafValues></_>
        <_>
          <internalNodes>
            0 -1 384 2.9177635442465544e-03</internalNodes>
          <leafValues>
            -2.3904009163379669e-01 2.0793546736240387e-01</leafValues></_>
        <_>
          <internalNodes>
            0 -1 199 2.3083142004907131e-03</internalNodes>
          <leafValues>
            1.4817757904529572e-01 -2.5113373994827271e-01</leafValues></_>
        <_>
          <internalNodes>
            0 -1 328 1.7884873086586595e-03</internalNodes>
          <leafValues>
            9.1015532612800598e-02 -4.1356956958770752e-01</leafValues></_>
        <_>
          <internalNodes>
            0 -1 244 4.9859118007589132e-05</internalNodes>
          <leafValues>
            -2.9615634679794312e-01 1.3101391494274139e-01</leafValues></_>
        <_>
          <internalNodes>
            0 -1 449 4.8777470365166664e-03</internalNodes>
          <leafValues>
            -7.3411613702774048e-02 4.7415611147880554e-01</leafValues></_>
        <_>
          <internalNodes>
            0 -1 343 1.0080383159220219e-02</internalNodes>
          <leafValues>
            6.4408868551254272e-02 -6.8750625848770142e-01</leafValues></_>
        <_>
          <internalNodes>
            0 -1 492 -6.9490959867835045e-03</internalNodes>
          <leafValues>
            2.3722159862518311e-01 -1.6432294249534607e-01</leafValues></_>
        <_>
          <internalNodes>
            0 -1 87 -5.6123837828636169e-02</internalNodes>
          <leafValues>
            4.4181033968925476e-01 -7.9222507774829865e-02</leafValues></_>
        <_>
          <internalNodes>
            0 -1 446 4.8470608890056610e-03</internalNodes>
          <leafValues>
            -1.1738153547048569e-01 2.8782677650451660e-01</leafValues></_>
        <_>
          <internalNodes>
            0 -1 327 7.4086530366912484e-04</internalNodes>
          <leafValues>
            -2.4266462028026581e-01 1.6388627886772156e-01</leafValues></_>
        <_>
          <internalNodes>
            0 -1 522 -6.6904909908771515e-03</internalNodes>
          <leafValues>
            3.4887090325355530e-01 -1.0046312958002090e-01</leafValues></_>
        <_>
          <internalNodes>
            0 -1 487 3.4274258650839329e-03</internalNodes>
          <leafValues>
            -9.6354998648166656e-02 3.4069997072219849e-01</leafValues></_>
        <_>
          <internalNodes>
            0 -1 388 1.7800161149352789e-03</internalNodes>
          <leafValues>
            1.2522724270820618e-01 -2.8671780228614807e-01</leafValues></_>
        <_>
          <internalNodes>
            0 -1 180 -2.4254035204648972e-02</internalNodes>
          <leafValues>
            4.3504863977432251e-01 -7.6777480542659760e-02</leafValues></_>
        <_>
          <internalNodes>
            0 -1 306 1.1561822611838579e-04</internalNodes>
          <leafValues>
            -2.1263071894645691e-01 1.7436724901199341e-01</leafValues></_></weakClassifiers></_>
    <!-- stage 18 -->
    <_>
      <maxWeakCount>42</maxWeakCount>
      <stageThreshold>-6.9067406654357910e-01</stageThreshold>
      <weakClassifiers>
        <_>
          <internalNodes>
            0 -1 170 1.9688434898853302e-02</internalNodes>
          <leafValues>
            -5.1813472062349319e-02 4.9187338352203369e-01</leafValues></_>
        <_>
          <internalNodes>
            0 -1 58 2.9818230867385864e-01</internalNodes>
          <leafValues>
            -1.5408910810947418e-01 3.1065079569816589e-01</leafValues></_>
